{"learner":{"attributes":{"best_iteration":"99","best_ntree_limit":"100","scikit_learn":"{\"use_label_encoder\": true, \"n_estimators\": 100, \"objective\": \"binary:logistic\", \"max_depth\": null, \"learning_rate\": null, \"verbosity\": null, \"booster\": null, \"tree_method\": null, \"gamma\": null, \"min_child_weight\": null, \"max_delta_step\": null, \"subsample\": null, \"colsample_bytree\": null, \"colsample_bylevel\": null, \"colsample_bynode\": null, \"reg_alpha\": null, \"reg_lambda\": null, \"scale_pos_weight\": null, \"base_score\": null, \"missing\": NaN, \"num_parallel_tree\": null, \"random_state\": null, \"n_jobs\": null, \"monotone_constraints\": null, \"interaction_constraints\": null, \"importance_type\": null, \"gpu_id\": null, \"validate_parameters\": null, \"predictor\": null, \"enable_categorical\": false, \"classes_\": [0.0, 1.0], \"n_classes_\": 2, \"_le\": {\"classes_\": [0.0, 1.0]}, \"_estimator_type\": \"classifier\"}"},"feature_names":["tourney_id","surface","draw_size","tourney_level","match_num","second_id","second_seed","second_hand","second_ht","second_ioc","second_age","first_id","first_seed","first_entry","first_hand","first_ht","first_ioc","first_age","best_of","round","second_rank","first_rank","tourney_year","tourney_month"],"feature_types":["float","float","float","float","float","float","float","float","float","float","float","float","float","float","float","float","float","float","float","float","float","float","float","float"],"gradient_booster":{"model":{"gbtree_model_param":{"num_trees":"100","size_leaf_vector":"0"},"tree_info":[0,0,0,0,0,0,0,0,0,0,0,0,0,0,0,0,0,0,0,0,0,0,0,0,0,0,0,0,0,0,0,0,0,0,0,0,0,0,0,0,0,0,0,0,0,0,0,0,0,0,0,0,0,0,0,0,0,0,0,0,0,0,0,0,0,0,0,0,0,0,0,0,0,0,0,0,0,0,0,0,0,0,0,0,0,0,0,0,0,0,0,0,0,0,0,0,0,0,0,0],"trees":[{"base_weights":[-1.5238237E-3,5.926802E-1,-2.5442407E-1,1.9682845E0,3.8793164E-1,-8.252013E-1,5.3547032E-2,-1.4545455E0,1.984556E0,-5.080822E-1,5.833587E-1,-1.9721308E0,-5.467693E-1,3.5922858E-1,-1.6000554E-1,3.6293435E-1,-8.107527E-1,1.1360927E0,3.934503E-1,5E-1,-1.9744334E0,-1.0623946E0,-3.476903E-1,1.6991504E0,2.7576825E-2,-5.8309454E-1,1.2876793E-2,-2.5792813E-1,7.1670705E-1,-1.0635514E0,-4.6717173E-1,7.5274056E-1,1.2837231E0,5.6338026E-3,4.9490926E-1,-2.857143E-1,-1.9774889E0,-8.9840883E-1,-1.4223905E0,-2.4895152E-1,-6.882966E-1,-1.24223605E-2,1.8469056E0,9.49825E-1,-2.4020888E-2,-1.5079595E0,6.802145E-1,-2.4697962E-1,3.0446032E-1,-5.8981232E-2,-9.6153843E-1,-1.9512194E-1,8.128342E-1,-5.247525E-1,-1.1862069E0,-1.6541353E-1,-6.8255687E-1,6.4559066E-1,1.036036E0,1.5874822E0,1.1310492E0,2.1645021E-1,-1.7036654E-1,3.8083276E-1,8.624883E-1,-1.2E0,1E0,-1.4545455E0,-8.028612E-1,-1.7013888E0,-1.2920909E0,-3.210733E-1,5.675955E-1,-8.879581E-1,-4.3984476E-1,1.3090909E0,-6.851852E-1,1.3796296E0,1.9066339E0,5.2837574E-1,1.5542858E0,8.898399E-2,-8.887634E-1,-1.7543164E0,-8.379205E-1,1.3195099E0,-2.736842E-1,-6.761123E-2,-7.6187074E-1,5.236769E-1,-3.2891032E-1],"categories":[],"categories_nodes":[],"categories_segments":[],"categories_sizes":[],"default_left":[true,true,true,true,true,true,true,false,false,true,true,true,true,true,true,true,true,true,true,false,true,true,true,true,true,true,true,true,true,true,true,true,true,true,true,true,false,true,true,true,true,true,true,true,true,true,true,true,true,false,false,false,false,false,false,false,false,false,false,false,false,false,false,false,false,false,false,false,false,false,false,false,false,false,false,false,false,false,false,false,false,false,false,false,false,false,false,false,false,false,false],"id":0,"left_children":[1,3,5,7,9,11,13,-1,-1,15,17,19,21,23,25,27,29,31,33,-1,35,37,39,41,43,45,47,49,51,53,55,57,59,61,63,65,-1,67,69,71,73,75,77,79,81,83,85,87,89,-1,-1,-1,-1,-1,-1,-1,-1,-1,-1,-1,-1,-1,-1,-1,-1,-1,-1,-1,-1,-1,-1,-1,-1,-1,-1,-1,-1,-1,-1,-1,-1,-1,-1,-1,-1,-1,-1,-1,-1,-1,-1],"loss_changes":[4.0434324E3,2.261755E3,3.3177703E3,6.0836914E1,1.2248959E3,2.111288E3,8.003954E2,0E0,0E0,3.30558E2,6.022577E2,8.340332E0,5.4614014E2,2.2408877E3,5.280019E2,7.129466E1,8.027997E1,8.210022E1,1.6820764E2,0E0,6.0947266E0,8.624036E1,1.29056E2,2.5304321E2,1.9242448E2,2.447635E3,3.8843356E2,1.649605E1,1.8258652E1,3.4733887E1,2.5624817E1,1.1791901E1,4.7281982E1,3.2966465E1,1.4175848E2,5.3142858E0,0E0,5.3098877E1,1.4606018E1,1.7570628E2,4.2419647E1,7.2466705E1,2.3074219E1,5.3758835E1,3.7434714E2,1.9813916E2,5.4051184E2,2.5030031E2,3.355879E2,0E0,0E0,0E0,0E0,0E0,0E0,0E0,0E0,0E0,0E0,0E0,0E0,0E0,0E0,0E0,0E0,0E0,0E0,0E0,0E0,0E0,0E0,0E0,0E0,0E0,0E0,0E0,0E0,0E0,0E0,0E0,0E0,0E0,0E0,0E0,0E0,0E0,0E0,0E0,0E0,0E0,0E0],"parents":[2147483647,0,0,1,1,2,2,3,3,4,4,5,5,6,6,9,9,10,10,11,11,12,12,13,13,14,14,15,15,16,16,17,17,18,18,20,20,21,21,22,22,23,23,24,24,25,25,26,26,27,27,28,28,29,29,30,30,31,31,32,32,33,33,34,34,35,35,37,37,38,38,39,39,40,40,41,41,42,42,43,43,44,44,45,45,46,46,47,47,48,48],"right_children":[2,4,6,8,10,12,14,-1,-1,16,18,20,22,24,26,28,30,32,34,-1,36,38,40,42,44,46,48,50,52,54,56,58,60,62,64,66,-1,68,70,72,74,76,78,80,82,84,86,88,90,-1,-1,-1,-1,-1,-1,-1,-1,-1,-1,-1,-1,-1,-1,-1,-1,-1,-1,-1,-1,-1,-1,-1,-1,-1,-1,-1,-1,-1,-1,-1,-1,-1,-1,-1,-1,-1,-1,-1,-1,-1,-1],"split_conditions":[3.15E1,7.5E0,4.15E1,7.463239E0,1.05E1,7.5E0,7.55E1,-4.3636367E-1,5.9536684E-1,5.5E0,7.5E0,7.463239E0,1.15E1,7.5E0,7.5E0,3.5E0,5.5E0,1.038025E5,2.75E1,1.5E-1,3.45E1,4E0,4E0,6.55E1,2.6E1,1.185E2,1.185E2,4.5E0,2.188501E1,1.038025E5,1.65E1,4E0,2.5E0,1.75E1,4E0,3.4E1,-5.932467E-1,2.5E0,3.5E0,1.265E2,2.65E1,4.85E1,8.75E1,1.755E2,1.245E2,9.05E1,1.445E2,1.215E2,5.155E2,-1.769437E-2,-2.8846154E-1,-5.8536585E-2,2.4385028E-1,-1.5742576E-1,-3.5586208E-1,-4.962406E-2,-2.0476706E-1,1.936772E-1,3.108108E-1,4.762447E-1,3.3931476E-1,6.4935066E-2,-5.1109966E-2,1.1424983E-1,2.587465E-1,-3.6E-1,3E-1,-4.3636367E-1,-2.4085838E-1,-5.104167E-1,-3.8762727E-1,-9.632199E-2,1.7027865E-1,-2.6638743E-1,-1.3195343E-1,3.927273E-1,-2.0555557E-1,4.138889E-1,5.719902E-1,1.5851273E-1,4.6628574E-1,2.6695197E-2,-2.6662904E-1,-5.2629495E-1,-2.5137615E-1,3.9585298E-1,-8.2105264E-2,-2.0283371E-2,-2.2856124E-1,1.5710306E-1,-9.86731E-2],"split_indices":[21,13,20,6,20,13,21,0,0,21,21,12,20,13,13,20,20,11,20,0,21,18,18,20,2,20,21,21,10,5,21,18,21,21,18,20,0,20,20,21,20,21,20,20,20,20,21,20,21,0,0,0,0,0,0,0,0,0,0,0,0,0,0,0,0,0,0,0,0,0,0,0,0,0,0,0,0,0,0,0,0,0,0,0,0,0,0,0,0,0,0],"split_type":[0,0,0,0,0,0,0,0,0,0,0,0,0,0,0,0,0,0,0,0,0,0,0,0,0,0,0,0,0,0,0,0,0,0,0,0,0,0,0,0,0,0,0,0,0,0,0,0,0,0,0,0,0,0,0,0,0,0,0,0,0,0,0,0,0,0,0,0,0,0,0,0,0,0,0,0,0,0,0,0,0,0,0,0,0,0,0,0,0,0,0],"sum_hessian":[2.6905E4,8.032E3,1.8873E4,1.0395E3,6.9925E3,6.61375E3,1.225925E4,4.5E0,1.035E3,1.25175E3,5.74075E3,1.29075E3,5.323E3,5.04175E3,7.2175E3,3.2275E2,9.29E2,1.46675E3,4.274E3,1E0,1.28975E3,1.4815E3,3.8415E3,9.995E2,4.04225E3,2.093E3,5.1245E3,1.1725E2,2.055E2,5.34E2,3.95E2,4.095E2,1.05725E3,8.865E2,3.3875E3,2.5E0,1.28725E3,1.02025E3,4.6125E2,2.9795E3,8.62E2,7.95E1,9.2E2,2.1325E2,3.829E3,1.20825E3,8.8475E2,2.70975E3,2.41475E3,9.225E1,2.5E1,1.95E1,1.86E2,1E2,4.34E2,1.6525E2,2.2975E2,2.995E2,1.1E2,3.505E2,7.0675E2,4.0325E2,4.8325E2,2.58675E3,8.0075E2,1.5E0,1E0,1.475E2,8.7275E2,1.43E2,3.1825E2,2.73825E3,2.4125E2,4.765E2,3.855E2,2.65E1,5.3E1,1.07E2,8.13E2,1.2675E2,8.65E1,3.38725E3,4.4175E2,8.8225E2,3.26E2,5.295E2,3.5525E2,2.0105E3,6.9925E2,1.794E3,6.2075E2],"tree_param":{"num_deleted":"0","num_feature":"24","num_nodes":"91","size_leaf_vector":"0"}},{"base_weights":[-1.09727E-3,-4.298044E-1,1.8773466E-1,-1.5244815E0,-2.7840266E-1,6.067636E-1,-4.3232236E-2,1.139924E0,-1.5383283E0,3.5913175E-1,-4.158378E-1,1.5270863E0,3.9755E-1,-2.8148475E-1,1.0331451E-1,-2.5655535E-1,5.6669205E-1,-8.5249543E-1,-2.7383244E-1,9.2382234E-1,1.5374181E0,8.069212E-1,2.488178E-1,-1.334902E0,-3.0378582E-2,3.0736518E-1,-7.6329045E-2,3.5612786E-1,-4.6875158E-1,9.3800944E-1,4.3777296E-1,-5.0220424E-1,-9.8819906E-1,1.2398445E-2,-3.4936213E-1,1.38789E0,3.0910882E-1,6.695774E-1,1.1097026E0,3.226635E-1,-5.6923285E-2,-1.4307214E-1,-1.4513285E0,-1.0010862E0,2.2872146E-2,1.3190135E0,-6.529553E-2,-1.6388458E-1,5.749571E-1,6.870898E-1,7.043637E-2,-8.174932E-1,-3.0465207E-1,3.883767E-1,1.0157496E0,2.9082495E-1,6.648486E-1,-4.5409158E-1,-1.0026109E0,-1.2374177E0,-8.640673E-1,-2.2627206E-1,1.2633273E-1,-3.783395E-2,-4.2248514E-1,1.1745156E0,-1.2953071E-1,1.0561444E0,6.056713E-1,7.508742E-1,1.2051755E0,3.8044742E-1,-4.359837E-2,9.554783E-2,-9.4373417E-1,-1.2177626E0,3.8455883E-1,-1.1319188E0,-1.4963998E0,-5.748226E-1,-1.5668643E0,-7.9020835E-2,6.9628435E-1,6.5258396E-1,1.3921287E0,1.021302E0,-1.5564284E-1,-9.835732E-1,-9.801529E-2,8.6754745E-1,-2.7773399E-2],"categories":[],"categories_nodes":[],"categories_segments":[],"categories_sizes":[],"default_left":[true,true,true,true,true,true,true,false,false,true,true,true,true,true,true,true,true,true,true,true,false,true,true,true,true,true,true,true,true,true,true,true,true,true,true,false,true,true,true,true,true,true,true,true,true,true,true,true,true,false,false,false,false,false,false,false,false,false,false,false,false,false,false,false,false,false,false,false,false,false,false,false,false,false,false,false,false,false,false,false,false,false,false,false,false,false,false,false,false,false,false],"id":1,"left_children":[1,3,5,7,9,11,13,-1,-1,15,17,19,21,23,25,27,29,31,33,35,-1,37,39,41,43,45,47,49,51,53,55,57,59,61,63,-1,65,67,69,71,73,75,77,79,81,83,85,87,89,-1,-1,-1,-1,-1,-1,-1,-1,-1,-1,-1,-1,-1,-1,-1,-1,-1,-1,-1,-1,-1,-1,-1,-1,-1,-1,-1,-1,-1,-1,-1,-1,-1,-1,-1,-1,-1,-1,-1,-1,-1,-1],"loss_changes":[2.1355242E3,1.3364672E3,1.772413E3,3.7904297E1,6.2115576E2,1.2523564E3,4.1226532E2,0E0,0E0,1.6083862E2,3.61338E2,6.0898438E0,3.2270892E2,1.1894424E3,2.6801978E2,4.1473854E1,4.4622192E1,6.750293E1,9.5161896E1,6.0736313E0,0E0,5.8012756E1,8.788052E1,1.19897095E2,1.877752E2,1.2906335E3,2.21851E2,7.7334175E0,1.3280998E1,9.927322E0,2.3170029E1,9.210365E0,3.079541E1,2.504441E1,7.9318146E1,0E0,4.362809E0,2.3434845E1,1.4147644E1,6.635809E1,1.0257106E2,4.4775764E1,9.656372E0,4.466002E1,2.3638892E2,4.3996582E1,2.4584282E2,1.8503171E2,8.133446E1,0E0,0E0,0E0,0E0,0E0,0E0,0E0,0E0,0E0,0E0,0E0,0E0,0E0,0E0,0E0,0E0,0E0,0E0,0E0,0E0,0E0,0E0,0E0,0E0,0E0,0E0,0E0,0E0,0E0,0E0,0E0,0E0,0E0,0E0,0E0,0E0,0E0,0E0,0E0,0E0,0E0,0E0],"parents":[2147483647,0,0,1,1,2,2,3,3,4,4,5,5,6,6,9,9,10,10,11,11,12,12,13,13,14,14,15,15,16,16,17,17,18,18,19,19,21,21,22,22,23,23,24,24,25,25,26,26,27,27,28,28,29,29,30,30,31,31,32,32,33,33,34,34,36,36,37,37,38,38,39,39,40,40,41,41,42,42,43,43,44,44,45,45,46,46,47,47,48,48],"right_children":[2,4,6,8,10,12,14,-1,-1,16,18,20,22,24,26,28,30,32,34,36,-1,38,40,42,44,46,48,50,52,54,56,58,60,62,64,-1,66,68,70,72,74,76,78,80,82,84,86,88,90,-1,-1,-1,-1,-1,-1,-1,-1,-1,-1,-1,-1,-1,-1,-1,-1,-1,-1,-1,-1,-1,-1,-1,-1,-1,-1,-1,-1,-1,-1,-1,-1,-1,-1,-1,-1,-1,-1,-1,-1,-1,-1],"split_conditions":[3.25E1,7.5E0,4.25E1,6.963239E0,1.05E1,7.5E0,7.25E1,3.4197724E-1,-4.614985E-1,5.5E0,7.5E0,4.55E1,1.15E1,7.5E0,9.938422E1,2.5E0,2.5E0,1.038025E5,2.75E1,2.45E1,4.6122545E-1,4E0,3.5E0,6.85E1,6E0,7.5E0,1.06484E5,1.04676E5,1.5E0,3.615E2,2.15E1,3.0684464E1,2.5E0,1.45E1,2.2974674E1,4.1636702E-1,2.55E1,2.5E0,1.03661E5,1.165E2,8.45E1,4.65E1,9.25E1,1.755E2,1.205E2,9.05E1,2.6E1,9.988422E1,1.085975E5,2.0612694E-1,2.1130912E-2,-2.4524797E-1,-9.1395624E-2,1.1651302E-1,3.0472487E-1,8.724749E-2,1.9945459E-1,-1.3622747E-1,-3.0078328E-1,-3.7122533E-1,-2.592202E-1,-6.788162E-2,3.7899822E-2,-1.1350186E-2,-1.2674555E-1,3.523547E-1,-3.8859215E-2,3.1684333E-1,1.8170139E-1,2.2526227E-1,3.6155266E-1,1.1413423E-1,-1.3079511E-2,2.866435E-2,-2.8312027E-1,-3.653288E-1,1.1536765E-1,-3.3957565E-1,-4.4891995E-1,-1.7244679E-1,-4.700593E-1,-2.3706252E-2,2.0888531E-1,1.957752E-1,4.1763863E-1,3.063906E-1,-4.6692852E-2,-2.9507196E-1,-2.940459E-2,2.6026425E-1,-8.33202E-3],"split_indices":[20,13,21,12,21,13,20,0,0,20,20,20,21,13,21,21,21,5,21,21,0,18,3,21,2,13,5,5,20,0,20,10,20,20,17,0,16,21,11,20,20,20,21,21,21,20,2,21,11,0,0,0,0,0,0,0,0,0,0,0,0,0,0,0,0,0,0,0,0,0,0,0,0,0,0,0,0,0,0,0,0,0,0,0,0,0,0,0,0,0,0],"split_type":[0,0,0,0,0,0,0,0,0,0,0,0,0,0,0,0,0,0,0,0,0,0,0,0,0,0,0,0,0,0,0,0,0,0,0,0,0,0,0,0,0,0,0,0,0,0,0,0,0,0,0,0,0,0,0,0,0,0,0,0,0,0,0,0,0,0,0,0,0,0,0,0,0,0,0,0,0,0,0,0,0,0,0,0,0,0,0,0,0,0,0],"sum_hessian":[2.6377611E4,8.065391E3,1.831222E4,9.788637E2,7.0865273E3,6.5064116E3,1.1805808E4,4.6403627E0,9.742233E2,1.2564573E3,5.8300703E3,1.2039562E3,5.3024556E3,4.495767E3,7.310041E3,3.1672333E2,9.39734E2,1.429486E3,4.4005845E3,2.1794796E1,1.1821614E3,1.4119025E3,3.890553E3,8.645541E2,3.6312131E3,3.4221887E3,3.8878523E3,8.1301056E1,2.3542229E2,2.405673E2,6.991667E2,4.0046576E2,1.0290201E3,9.189445E2,3.4816396E3,1.1702447E1,1.0092349E1,9.73519E2,4.383835E2,3.1336313E3,7.569216E2,7.713817E1,7.874159E2,1.8791478E2,3.4432983E3,9.2058124E2,2.5016074E3,3.4277866E3,4.6006558E2,3.7015316E1,4.428574E1,7.405665E1,1.6136563E2,3.055258E1,2.1001472E2,4.2585974E2,2.7330695E2,3.670796E2,3.338618E1,3.391472E2,6.89873E2,2.9661237E2,6.2233215E2,6.621557E2,2.8194841E3,2.830442E0,7.261907E0,1.3590514E2,8.376139E2,9.399071E1,3.4439282E2,2.7065837E3,4.2704773E2,6.466364E2,1.10285194E2,2.4970245E1,5.2167927E1,1.00600006E2,6.8681586E2,1.083207E2,7.959407E1,2.9915361E3,4.5176212E2,9.199478E1,8.285865E2,1.9124307E2,2.3103643E3,2.5392827E2,3.1738584E3,3.094206E2,1.5064497E2],"tree_param":{"num_deleted":"0","num_feature":"24","num_nodes":"91","size_leaf_vector":"0"}},{"base_weights":[-5.96935E-4,3.87253E-1,-1.1980289E-1,1.3301144E0,2.7532846E-1,-4.0924844E-1,7.43985E-2,-5.685274E-1,1.3355832E0,-1.2381319E-1,3.949373E-1,-1.297919E0,-2.5786483E-1,2.818363E-1,-6.1349604E-2,5.874628E-1,1.3379321E0,2.46229E-1,-2.878835E-1,8.594445E-1,3.286314E-1,-5.220629E-1,-1.3211989E0,-6.064371E-1,-1.4699641E-1,1.202972E0,7.171712E-2,-1.1630447E-1,4.745334E-1,9.1448563E-1,-1.0573897E-1,-9.927675E-2,4.4532788E-1,-6.733585E-1,-1.884021E-1,2.819267E-1,9.432885E-1,2.538104E-1,5.6710654E-1,-1.2471088E0,9.466731E-2,-1.0951474E0,-1.3297217E0,-4.8941284E-1,-8.8929296E-1,-7.7183634E-1,-1.1653347E-1,1.7787486E-1,1.2438246E0,1.4261153E-1,-2.9291913E-1,-5.252569E-2,-4.8923331E-1,7.326747E-1,-4.1060808E-1,-6.809007E-1,1.6594272E-2,2.1690407E-1,6.255393E-1,1.2633537E-1,-7.5043625E-1,1.2405645E-1,-2.610957E-1,3.782706E-2,6.099696E-1,5.103759E-1,1.0002586E0,2.8690273E-1,-3.8106796E-1,2.4785879E-1,6.886076E-1,-2.8119624E-1,-1.2934841E0,3.1191257E-1,-8.61019E-1,-6.245099E-1,-1.2181569E0,-2.3108678E-1,-5.807763E-1,-6.991753E-1,-1.0233356E0,-5.196892E-1,-1.3645175E0,-1.6055827E-1,5.814606E-1,6.694384E-1,-8.323346E-1,9.035733E-1,1.2851437E0,1.9601902E-1,-2.1431702E-1,8.7563556E-1,-5.5172527E-1,-2.4782284E-1,1.2734982E-2,-6.897098E-1,6.240274E-1,9.274174E-1,-1.1506986E-2,-8.2286876E-1,-1.5201198E-2],"categories":[],"categories_nodes":[],"categories_segments":[],"categories_sizes":[],"default_left":[true,true,true,true,true,true,true,false,true,true,true,true,true,true,true,true,false,true,true,true,true,true,true,true,true,true,true,true,true,false,false,true,true,true,true,true,true,true,true,true,true,true,false,true,true,true,true,true,true,true,true,true,true,true,true,false,false,false,false,false,false,false,false,false,false,false,false,false,false,false,false,false,false,false,false,false,false,false,false,false,false,false,false,false,false,false,false,false,false,false,false,false,false,false,false,false,false,false,false,false,false],"id":2,"left_children":[1,3,5,7,9,11,13,-1,15,17,19,21,23,25,27,29,-1,31,33,35,37,39,41,43,45,47,49,51,53,-1,-1,55,57,59,61,63,65,67,69,71,73,75,-1,77,79,81,83,85,87,89,91,93,95,97,99,-1,-1,-1,-1,-1,-1,-1,-1,-1,-1,-1,-1,-1,-1,-1,-1,-1,-1,-1,-1,-1,-1,-1,-1,-1,-1,-1,-1,-1,-1,-1,-1,-1,-1,-1,-1,-1,-1,-1,-1,-1,-1,-1,-1,-1,-1],"loss_changes":[1.1794094E3,6.3250916E2,1.0968367E3,7.364258E0,2.5603775E2,1.0537189E3,3.2887064E2,0E0,3.289795E-1,7.517853E1,1.26795166E2,1.990393E1,2.586783E2,8.940239E2,2.0796057E2,9.510912E-1,0E0,2.6222408E1,3.2757774E1,2.4659943E1,6.4308075E1,1.5709615E1,6.751709E-1,5.3038757E1,9.6632164E1,3.5708984E1,9.730743E1,1.522911E2,1.5038252E2,0E0,0E0,9.442466E0,9.81015E0,1.0913795E1,1.554628E1,5.3168287E0,1.0565277E1,5.7913803E1,3.325943E1,3.5734558E-1,4.373361E0,1.8944473E0,0E0,2.6888031E1,1.130127E1,3.4565536E1,1.4901793E2,1.746525E1,1.0436401E1,6.010472E1,1.8580925E2,6.971672E1,2.0913675E2,7.3760895E1,2.4267574E1,0E0,0E0,0E0,0E0,0E0,0E0,0E0,0E0,0E0,0E0,0E0,0E0,0E0,0E0,0E0,0E0,0E0,0E0,0E0,0E0,0E0,0E0,0E0,0E0,0E0,0E0,0E0,0E0,0E0,0E0,0E0,0E0,0E0,0E0,0E0,0E0,0E0,0E0,0E0,0E0,0E0,0E0,0E0,0E0,0E0,0E0],"parents":[2147483647,0,0,1,1,2,2,3,3,4,4,5,5,6,6,8,8,9,9,10,10,11,11,12,12,13,13,14,14,15,15,17,17,18,18,19,19,20,20,21,21,22,22,23,23,24,24,25,25,26,26,27,27,28,28,31,31,32,32,33,33,34,34,35,35,36,36,37,37,38,38,39,39,40,40,41,41,43,43,44,44,45,45,46,46,47,47,48,48,49,49,50,50,51,51,52,52,53,53,54,54],"right_children":[2,4,6,8,10,12,14,-1,16,18,20,22,24,26,28,30,-1,32,34,36,38,40,42,44,46,48,50,52,54,-1,-1,56,58,60,62,64,66,68,70,72,74,76,-1,78,80,82,84,86,88,90,92,94,96,98,100,-1,-1,-1,-1,-1,-1,-1,-1,-1,-1,-1,-1,-1,-1,-1,-1,-1,-1,-1,-1,-1,-1,-1,-1,-1,-1,-1,-1,-1,-1,-1,-1,-1,-1,-1,-1,-1,-1,-1,-1,-1,-1,-1,-1,-1,-1],"split_conditions":[2.45E1,7.5E0,4.85E1,7.463239E0,1.45E1,7.5E0,6.95E1,-1.7055823E-1,2.85E1,5.5E0,3.5E0,4.75E1,1.15E1,7.5E0,5.135E2,3E1,4.0137964E-1,4.5E0,2.5E0,3.245E2,4E0,2.45E1,5.95E1,4E0,1.6E1,5.95E1,1.205E2,3.165E2,1.062215E5,2.743457E-1,-3.1721693E-2,1.84E2,1.408E3,2.1928816E1,1.03491E5,3.8E1,2.1975359E1,1.265E2,3.95E1,1.59E2,1.054075E5,1.85E1,-3.989165E-1,1.03661E5,1.181E3,1.84E2,1.345E2,5.85E1,8.15E1,3.5E0,2.6E1,7.05E1,1.06484E5,6.7E2,1.921E3,-2.0427021E-1,4.978282E-3,6.5071225E-2,1.876618E-1,3.790061E-2,-2.2513089E-1,3.7216935E-2,-7.8328714E-2,1.1348118E-2,1.829909E-1,1.5311278E-1,3.000776E-1,8.607082E-2,-1.1432039E-1,7.435764E-2,2.0658228E-1,-8.435887E-2,-3.8804525E-1,9.357377E-2,-2.5830573E-1,-1.8735297E-1,-3.654471E-1,-6.9326036E-2,-1.7423289E-1,-2.097526E-1,-3.070007E-1,-1.5590677E-1,-4.0935525E-1,-4.8167482E-2,1.7443818E-1,2.0083153E-1,-2.4970038E-1,2.71072E-1,3.8554314E-1,5.8805708E-2,-6.429511E-2,2.626907E-1,-1.6551758E-1,-7.4346855E-2,3.8204947E-3,-2.0691295E-1,1.8720822E-1,2.7822524E-1,-3.452096E-3,-2.4686064E-1,-4.5603598E-3],"split_indices":[21,13,20,6,20,13,21,0,20,21,21,21,20,13,20,16,0,20,20,0,18,20,21,18,2,20,20,21,11,0,0,15,0,17,5,9,10,20,20,0,5,4,0,5,0,21,21,21,20,3,2,20,5,21,0,0,0,0,0,0,0,0,0,0,0,0,0,0,0,0,0,0,0,0,0,0,0,0,0,0,0,0,0,0,0,0,0,0,0,0,0,0,0,0,0,0,0,0,0,0,0],"split_type":[0,0,0,0,0,0,0,0,0,0,0,0,0,0,0,0,0,0,0,0,0,0,0,0,0,0,0,0,0,0,0,0,0,0,0,0,0,0,0,0,0,0,0,0,0,0,0,0,0,0,0,0,0,0,0,0,0,0,0,0,0,0,0,0,0,0,0,0,0,0,0,0,0,0,0,0,0,0,0,0,0,0,0,0,0,0,0,0,0,0,0,0,0,0,0,0,0,0,0,0,0],"sum_hessian":[2.5507553E4,5.996152E3,1.95114E4,6.351036E2,5.3610483E3,7.834074E3,1.1677326E4,1.5283778E0,6.335752E2,1.2360945E3,4.1249536E3,1.139175E3,6.6948994E3,4.6185723E3,7.058754E3,2.7689524E0,6.308062E2,3.7955344E2,8.56541E2,5.137698E2,3.6111838E3,3.386813E1,1.1053069E3,1.6144791E3,5.08042E3,8.569755E2,3.7615967E3,6.402917E3,6.558369E2,1.6644951E0,1.1044574E0,1.3894206E2,2.4061139E2,1.7452295E2,6.8201807E2,6.568613E1,4.4808368E2,2.750337E3,8.6084705E2,1.5097244E1,1.8770887E1,4.4864E1,1.0604429E3,1.1439357E3,4.7054343E2,2.350412E2,4.845379E3,3.304885E1,8.2392664E2,3.1498047E3,6.1179193E2,5.46878E3,9.3413715E2,5.0788916E2,1.4794777E2,2.2271603E1,1.1667046E2,1.0708337E2,1.3352802E2,1.5286279E1,1.5923668E2,1.285907E2,5.5342737E2,3.8301186E1,2.7384937E1,5.326725E1,3.9481644E2,2.6146018E3,1.3573506E2,2.3814734E2,6.226997E2,1.0152366E0,1.4082007E1,1.5843084E1,2.9278028E0,1.0555463E1,3.4308537E1,2.997983E2,8.441374E2,1.971435E2,2.7339993E2,1.6620757E2,6.883363E1,4.5586216E3,2.8675735E2,2.2458143E1,1.0590709E1,9.169671E1,7.322299E2,2.7402324E3,4.0957227E2,1.1049672E2,5.0129523E2,1.3690385E3,4.099741E3,7.9191003E2,1.4222708E2,4.0235254E2,1.05536644E2,7.190099E1,7.604677E1],"tree_param":{"num_deleted":"0","num_feature":"24","num_nodes":"101","size_leaf_vector":"0"}},{"base_weights":[-1.0859719E-4,-3.2112935E-1,8.7509364E-2,-1.2188972E0,-2.3329276E-1,3.2048357E-1,-6.1745144E-2,4.5176193E-1,-1.2237742E0,1.470031E-1,-3.1262013E-1,1.1749128E0,2.0360965E-1,-2.094388E-1,3.988664E-2,-1.2258724E0,-4.030487E-1,-3.0890238E-1,2.4178442E-1,-6.9294333E-1,-2.5478393E-1,3.9186075E-1,1.1991873E0,4.9818075E-1,1.213355E-1,-1.0997968E0,-3.1886324E-2,1.3434915E-2,6.863637E-1,-5.2084136E-1,-1.2283068E0,5.93336E-1,-3.5843968E-1,1.2397405E-1,4.0915644E-1,-1.976613E-2,-7.7264977E-1,-1.8805526E-1,-4.6812788E-1,1.0933841E0,-3.7019692E-2,9.663501E-1,1.2090118E0,2.2925039E-1,5.874325E-1,-1.7671628E-1,1.7627868E-1,-5.640731E-1,-1.1918428E0,-9.073939E-2,3.7762505E-1,4.885573E-2,-5.624974E-1,9.4136125E-1,-1.1180601E-2,-7.99086E-1,-8.395149E-3,1.1715221E0,-5.36765E-1,-6.1565064E-2,-5.541024E-1,-5.2511908E-2,3.6951086E-1,5.3142655E-1,3.2409865E-2,-3.8794404E-1,2.7724236E-1,-3.4947738E-1,-8.2817405E-1,3.665141E-2,-2.4721271E-1,-1.8772563E-1,-6.0983056E-1,3.0165493E-1,1.1500683E0,-2.1712351E-1,7.681455E-1,4.4089082E-1,1.1147193E0,1.2112696E0,5.8918846E-1,5.8970976E-1,1.591217E-1,4.8495695E-1,8.2883364E-1,7.722707E-1,-2.4406275E-1,1.2531456E-1,3.780389E-1,-1.056432E0,-1.6787396E-1,-1.073531E0,-1.2307061E0,3.101269E-1,-1.4016539E-1,1.4270337E-1,1.0045828E0,6.8229005E-2,-8.08497E-1,3.455608E-1,-6.923763E-1,1.2134832E0,6.9404167E-1,-3.4622592E-1,5.199266E-1],"categories":[],"categories_nodes":[],"categories_segments":[],"categories_sizes":[],"default_left":[true,true,true,true,true,true,true,false,true,true,true,true,true,true,true,true,false,true,true,true,true,true,true,true,true,true,true,true,true,true,false,true,true,true,true,true,true,true,true,true,true,true,true,true,true,true,true,true,true,true,true,true,true,true,true,false,false,false,false,false,false,false,false,false,false,false,false,false,false,false,false,false,false,false,false,false,false,false,false,false,false,false,false,false,false,false,false,false,false,false,false,false,false,false,false,false,false,false,false,false,false,false,false,false,false],"id":3,"left_children":[1,3,5,7,9,11,13,-1,15,17,19,21,23,25,27,29,-1,31,33,35,37,39,41,43,45,47,49,51,53,55,-1,57,59,61,63,65,67,69,71,73,75,77,79,81,83,85,87,89,91,93,95,97,99,101,103,-1,-1,-1,-1,-1,-1,-1,-1,-1,-1,-1,-1,-1,-1,-1,-1,-1,-1,-1,-1,-1,-1,-1,-1,-1,-1,-1,-1,-1,-1,-1,-1,-1,-1,-1,-1,-1,-1,-1,-1,-1,-1,-1,-1,-1,-1,-1,-1,-1,-1],"loss_changes":[6.942163E2,4.170285E2,6.742333E2,4.3935547E0,1.4550464E2,7.558435E2,1.7741461E2,0E0,3.157959E-1,3.6063583E1,8.758453E1,1.6843384E1,1.6138626E2,7.615989E2,1.19728775E2,1.6442871E-1,0E0,6.63912E0,1.3556221E1,2.8211426E1,4.9236298E1,8.7272215E0,8.514404E-1,3.4766235E1,8.532518E1,3.8825806E1,9.686899E1,1.3727507E2,4.8964294E1,4.707545E-1,0E0,5.764806E0,7.919546E0,1.7631739E1,1.3094566E1,6.3099504E0,1.0761932E1,3.5114815E1,3.2658524E1,1.461544E-1,2.9053812E0,2.6839447E0,4.6643066E-1,9.106556E0,2.6589172E1,5.2032776E1,4.5178375E1,2.3103294E1,1.817627E0,6.966325E1,7.424573E1,1.0534335E2,4.622068E1,1.272258E1,1.34662695E1,0E0,0E0,0E0,0E0,0E0,0E0,0E0,0E0,0E0,0E0,0E0,0E0,0E0,0E0,0E0,0E0,0E0,0E0,0E0,0E0,0E0,0E0,0E0,0E0,0E0,0E0,0E0,0E0,0E0,0E0,0E0,0E0,0E0,0E0,0E0,0E0,0E0,0E0,0E0,0E0,0E0,0E0,0E0,0E0,0E0,0E0,0E0,0E0,0E0,0E0],"parents":[2147483647,0,0,1,1,2,2,3,3,4,4,5,5,6,6,8,8,9,9,10,10,11,11,12,12,13,13,14,14,15,15,17,17,18,18,19,19,20,20,21,21,22,22,23,23,24,24,25,25,26,26,27,27,28,28,29,29,31,31,32,32,33,33,34,34,35,35,36,36,37,37,38,38,39,39,40,40,41,41,42,42,43,43,44,44,45,45,46,46,47,47,48,48,49,49,50,50,51,51,52,52,53,53,54,54],"right_children":[2,4,6,8,10,12,14,-1,16,18,20,22,24,26,28,30,-1,32,34,36,38,40,42,44,46,48,50,52,54,56,-1,58,60,62,64,66,68,70,72,74,76,78,80,82,84,86,88,90,92,94,96,98,100,102,104,-1,-1,-1,-1,-1,-1,-1,-1,-1,-1,-1,-1,-1,-1,-1,-1,-1,-1,-1,-1,-1,-1,-1,-1,-1,-1,-1,-1,-1,-1,-1,-1,-1,-1,-1,-1,-1,-1,-1,-1,-1,-1,-1,-1,-1,-1,-1,-1,-1,-1],"split_conditions":[2.25E1,7.5E0,4.75E1,1.5E1,9.5E0,7.5E0,6.95E1,1.3552858E-1,3.722382E1,2.5E0,3.5E0,4.55E1,1.05E1,7.5E0,1.5E0,2.85E1,-1.20914616E-1,1.036135E5,1.04738E5,2.475E2,4E0,2.1E1,5.95E1,1.03661E5,2.2550308E1,8.15E1,3.5E0,6.675E2,1.08605E5,3E1,-3.6849204E-1,3.5E0,3.5E0,9.3E1,1.05225E5,2.4E1,2.1975359E1,2.3204655E1,3.95E1,2.1255304E1,9E1,1.5E0,5.17E2,1.01842E5,4E0,1.6E1,4E0,4.45E1,1.175E2,2.1719372E1,8.45E1,1.5E0,1.939904E1,2.49E2,6.8E1,-2.397258E-1,-2.518545E-3,3.5145664E-1,-1.610295E-1,-1.846952E-2,-1.6623074E-1,-1.5753573E-2,1.1085326E-1,1.5942797E-1,9.72296E-3,-1.1638322E-1,8.317271E-2,-1.0484322E-1,-2.4845223E-1,1.0995423E-2,-7.416382E-2,-5.631769E-2,-1.8294917E-1,9.049648E-2,3.450205E-1,-6.513706E-2,2.3044366E-1,1.3226725E-1,3.344158E-1,3.633809E-1,1.7675655E-1,1.7691293E-1,4.7736514E-2,1.4548708E-1,2.486501E-1,2.3168121E-1,-7.321883E-2,3.759437E-2,1.1341168E-1,-3.169296E-1,-5.0362192E-2,-3.2205933E-1,-3.6921185E-1,9.3038075E-2,-4.2049617E-2,4.2811014E-2,3.0137485E-1,2.0468703E-2,-2.425491E-1,1.0366824E-1,-2.077129E-1,3.6404496E-1,2.0821251E-1,-1.0386778E-1,1.55978E-1],"split_indices":[20,13,21,21,21,13,20,0,17,20,20,20,21,13,7,21,0,5,11,0,18,21,20,11,10,21,3,21,11,9,0,3,12,16,11,9,17,17,21,10,16,3,4,11,18,2,18,20,21,17,21,14,10,20,16,0,0,0,0,0,0,0,0,0,0,0,0,0,0,0,0,0,0,0,0,0,0,0,0,0,0,0,0,0,0,0,0,0,0,0,0,0,0,0,0,0,0,0,0,0,0,0,0,0,0],"split_type":[0,0,0,0,0,0,0,0,0,0,0,0,0,0,0,0,0,0,0,0,0,0,0,0,0,0,0,0,0,0,0,0,0,0,0,0,0,0,0,0,0,0,0,0,0,0,0,0,0,0,0,0,0,0,0,0,0,0,0,0,0,0,0,0,0,0,0,0,0,0,0,0,0,0,0,0,0,0,0,0,0,0,0,0,0,0,0,0,0,0,0,0,0,0,0,0,0,0,0,0,0,0,0,0,0],"sum_hessian":[2.4679332E4,5.291029E3,1.9388303E4,4.7038632E2,4.8206426E3,7.57039E3,1.1817912E4,1.1024388E0,4.6928387E2,8.31858E2,3.9887847E3,9.098324E2,6.6605576E3,4.8168677E3,7.0010444E3,4.6759482E2,1.6890682E0,1.4278621E2,6.890718E2,5.250624E2,3.4637222E3,2.7872116E1,8.8196027E2,1.4530521E3,5.207506E3,7.9999646E2,4.0168713E3,6.7268257E3,2.742189E2,2.3486106E0,4.652462E2,6.860277E0,1.3592593E2,4.0543414E2,2.8363763E2,5.5719563E1,4.6934283E2,2.6399065E3,8.238156E2,9.986964E0,1.7885153E1,3.9730278E1,8.4223E2,3.6296054E2,1.0900916E3,8.1019604E2,4.3973096E3,1.18343735E2,6.816527E2,3.5128057E3,5.0406567E2,6.3379463E3,3.888793E2,2.0055394E2,7.366497E1,1.1596149E0,1.1889958E0,4.5141034E0,2.3461738E0,5.4519455E1,8.140649E1,2.3634277E2,1.6909138E2,2.1383017E2,6.980746E1,2.4742311E1,3.0977253E1,5.528533E1,4.140575E2,5.502373E2,2.0896692E3,2.7733932E2,5.4647626E2,1.0896126E0,8.897351E0,1.5212641E1,2.6725113E0,9.622641E0,3.010764E1,8.382224E2,4.0075936E0,5.7907692E1,3.0505286E2,7.6735547E2,3.2273605E2,5.2993355E1,7.572027E2,3.5118472E3,8.8546234E2,5.2025253E1,6.631848E1,1.7562361E2,5.060291E2,3.850015E2,3.1278042E3,3.6756598E2,1.3649971E2,6.198795E3,1.391514E2,4.845335E1,3.4042593E2,9.362892E1,1.0692501E2,4.538332E1,2.828165E1],"tree_param":{"num_deleted":"0","num_feature":"24","num_nodes":"105","size_leaf_vector":"0"}},{"base_weights":[-4.7758673E-4,2.8434128E-1,-5.983745E-2,1.1653368E0,2.0347206E-1,-3.2810274E-1,4.5812503E-3,3.1142774E-1,1.1671338E0,2.3378494E-1,-6.864306E-1,-1.181322E0,-2.2838794E-1,-1.1451011E-2,5.1834E-1,-1.3584493E-1,2.849528E-1,-1.8745983E-1,-1.0220137E0,-1.1643945E0,-1.5022336E0,-2.712738E-1,7.0715183E-1,2.0477248E-2,-3.324702E-1,6.5673053E-1,-3.536916E-1,-2.2225952E-2,-4.1186774E-1,2.4049817E-1,5.742063E-1,9.141648E-1,-3.1138325E-1,-1.1538459E0,2.7185485E-1,-5.648373E-1,-2.2433162E-1,2.3739575E-1,1.0492381E0,5.9040572E-2,-1.7404228E-1,-9.572426E-1,-9.826309E-2,-1.6353127E-1,7.594615E-1,-7.1722203E-1,-4.85572E-2,-1.2637609E-1,4.42477E-1,-5.7663906E-1,-1.7954999E-1,2.9665777E-1,-5.4093394E-3,2.860868E-1,6.7567253E-1,-1.2754512E-1,1.5185316E0,-4.1912916E-1,5.7758087E-1,-1.3326505E0,-4.5470655E-1,-8.840579E-1,8.970035E-1,-5.5265885E-2,-6.292153E-1,-2.6883647E-1,7.3557466E-2,6.7387724E-1,-9.2531346E-2,1.1749043E0,-2.5913522E-1,2.262604E-1,2.110644E-2,-1.1705832E0,-8.8742085E-2,-1.1529634E0,8.697661E-2,1.1346617E0,-2.9957017E-1,-3.9848346E-1,5.848631E-1,8.4113395E-1,2.564393E-1,-1.2629104E0,-4.738642E-1,4.774814E-1,-4.8434237E-1],"categories":[],"categories_nodes":[],"categories_segments":[],"categories_sizes":[],"default_left":[true,true,true,true,true,true,true,false,false,true,true,true,true,true,true,true,true,true,true,false,false,true,true,true,true,true,true,true,true,true,true,true,true,true,true,true,true,true,true,true,true,true,true,true,true,true,true,false,false,false,false,false,false,false,false,false,false,false,false,false,false,false,false,false,false,false,false,false,false,false,false,false,false,false,false,false,false,false,false,false,false,false,false,false,false,false,false],"id":4,"left_children":[1,3,5,7,9,11,13,-1,-1,15,17,19,21,23,25,27,29,31,33,-1,-1,35,37,39,41,43,45,47,49,51,53,55,57,59,61,63,65,67,69,71,73,75,77,79,81,83,85,-1,-1,-1,-1,-1,-1,-1,-1,-1,-1,-1,-1,-1,-1,-1,-1,-1,-1,-1,-1,-1,-1,-1,-1,-1,-1,-1,-1,-1,-1,-1,-1,-1,-1,-1,-1,-1,-1,-1,-1],"loss_changes":[4.0532535E2,2.9434604E2,3.428507E2,1.696167E-1,1.0235304E2,3.2656522E2,1.3178307E2,0E0,0E0,6.9342224E1,2.0746918E1,4.331665E-1,1.3824265E2,1.590351E2,5.8662064E1,1.3985757E1,4.125461E1,7.316247E0,1.3028084E1,0E0,0E0,4.5221222E1,2.4031242E1,1.0587608E2,2.0529303E2,3.5364746E1,7.393091E0,1.5406995E1,4.8753624E0,3.8558624E1,1.23220215E1,3.6326084E0,4.7481327E0,7.874344E0,6.3584795E0,1.482605E1,3.765428E1,9.416887E0,1.4631035E1,7.47117E1,1.9840253E2,7.829318E1,2.5400441E2,8.562425E0,1.5060394E1,3.44987E0,8.822749E0,0E0,0E0,0E0,0E0,0E0,0E0,0E0,0E0,0E0,0E0,0E0,0E0,0E0,0E0,0E0,0E0,0E0,0E0,0E0,0E0,0E0,0E0,0E0,0E0,0E0,0E0,0E0,0E0,0E0,0E0,0E0,0E0,0E0,0E0,0E0,0E0,0E0,0E0,0E0,0E0],"parents":[2147483647,0,0,1,1,2,2,3,3,4,4,5,5,6,6,9,9,10,10,11,11,12,12,13,13,14,14,15,15,16,16,17,17,18,18,21,21,22,22,23,23,24,24,25,25,26,26,27,27,28,28,29,29,30,30,31,31,32,32,33,33,34,34,35,35,36,36,37,37,38,38,39,39,40,40,41,41,42,42,43,43,44,44,45,45,46,46],"right_children":[2,4,6,8,10,12,14,-1,-1,16,18,20,22,24,26,28,30,32,34,-1,-1,36,38,40,42,44,46,48,50,52,54,56,58,60,62,64,66,68,70,72,74,76,78,80,82,84,86,-1,-1,-1,-1,-1,-1,-1,-1,-1,-1,-1,-1,-1,-1,-1,-1,-1,-1,-1,-1,-1,-1,-1,-1,-1,-1,-1,-1,-1,-1,-1,-1,-1,-1,-1,-1,-1,-1,-1,-1],"split_conditions":[6.5E0,7.5E0,7.463239E0,2.3E1,1.525E2,7.5E0,6.685E2,9.342833E-2,3.5014015E-1,3.5E0,1.038165E5,7.05E1,1.515E2,2.475E2,1.5E0,2.8695415E1,8E1,2.146612E1,1E0,-3.4931836E-1,-4.506701E-1,3.5E0,1.03913E5,7.963239E0,7.5E0,1.939904E1,1.049075E5,2.9507187E1,2.811362E1,1.0522E5,1.75E1,1.8E1,1.075E2,3.95E1,1.04629E5,2.1E2,2.4145E3,1.55E1,1E0,7.5E0,7.5E0,2.035E2,5E-1,1.2775E3,1.060925E5,3.9E1,6.05E1,-3.791283E-2,1.327431E-1,-1.7299172E-1,-5.3865E-2,8.8997334E-2,-1.6228019E-3,8.582604E-2,2.0270176E-1,-3.8263537E-2,4.555595E-1,-1.2573875E-1,1.7327426E-1,-3.9979517E-1,-1.3641196E-1,-2.6521736E-1,2.6910105E-1,-1.6579766E-2,-1.887646E-1,-8.065094E-2,2.2067241E-2,2.0216317E-1,-2.7759405E-2,3.5247132E-1,-7.7740565E-2,6.787812E-2,6.3319323E-3,-3.5117498E-1,-2.6622627E-2,-3.4588903E-1,2.6092984E-2,3.4039852E-1,-8.987106E-2,-1.1954504E-1,1.7545894E-1,2.523402E-1,7.693179E-2,-3.7887314E-1,-1.4215927E-1,1.4324443E-1,-1.4530271E-1],"split_indices":[12,13,6,20,20,13,20,0,0,6,5,20,21,21,14,17,2,17,3,0,0,20,11,6,13,17,5,10,10,5,20,4,9,21,11,0,0,4,3,13,13,20,3,20,11,16,9,0,0,0,0,0,0,0,0,0,0,0,0,0,0,0,0,0,0,0,0,0,0,0,0,0,0,0,0,0,0,0,0,0,0,0,0,0,0,0,0],"split_type":[0,0,0,0,0,0,0,0,0,0,0,0,0,0,0,0,0,0,0,0,0,0,0,0,0,0,0,0,0,0,0,0,0,0,0,0,0,0,0,0,0,0,0,0,0,0,0,0,0,0,0,0,0,0,0,0,0,0,0,0,0,0,0,0,0,0,0,0,0,0,0,0,0,0,0,0,0,0,0,0,0,0,0,0,0,0,0],"sum_hessian":[2.3972084E4,4.133767E3,1.9838316E4,3.4642084E2,3.787346E3,3.8405662E3,1.599775E4,1.0935419E0,3.453273E2,3.6632998E3,1.24046196E2,4.0074097E2,3.4398252E3,1.5514583E4,4.831675E2,4.4524597E2,3.218054E3,5.0507046E1,7.3539154E1,3.8505826E2,1.5682712E1,3.2897314E3,1.5009377E2,1.4111957E4,1.4026255E3,4.1720447E2,6.5963036E1,3.1617834E2,1.2906763E2,2.7909512E3,4.271027E2,4.462301E0,4.6044746E1,6.683732E1,6.701832E0,4.5200208E2,2.8377295E3,6.3958843E1,8.613492E1,1.17777295E4,2.3342278E3,3.8159445E2,1.021031E3,4.636984E1,3.7083463E2,2.9484886E1,3.6478153E1,2.5888467E2,5.729369E1,7.464416E1,5.442347E1,2.271896E3,5.190551E2,1.122322E2,3.1487048E2,1.9280318E0,2.5342689E0,4.153862E1,4.506124E0,5.250345E1,1.4333872E1,2.2069602E0,4.4948716E0,5.090805E1,4.0109402E2,2.468962E3,3.687674E2,2.7084515E1,3.6874325E1,7.867991E1,7.455008E0,2.176851E3,9.600878E3,1.8304428E2,2.1511836E3,3.2127322E2,6.0321236E1,1.4265993E2,8.7837103E2,3.5646477E1,1.0723365E1,3.1845676E2,5.2377876E1,7.8016024E0,2.1683285E1,1.6484247E1,1.9993904E1],"tree_param":{"num_deleted":"0","num_feature":"24","num_nodes":"87","size_leaf_vector":"0"}},{"base_weights":[-9.5526065E-4,2.0482634E-1,-5.5629812E-2,1.1066128E0,1.4421359E-1,-2.2502114E-1,1.5202633E-2,-4.419509E-1,1.1134287E0,-8.265938E-2,1.9107927E-1,-1.0831372E0,-1.4705513E-1,7.961928E-2,-9.360274E-2,1.1166006E0,1.661751E-1,2.1690628E-1,-1.4427023E-1,-9.371714E-3,2.6181877E-1,1.0780891E-1,-1.0900698E0,-8.19211E-2,-3.6599055E-1,1.5129626E-2,4.3406135E-1,-6.412709E-2,-5.4322654E-1,3.6050138E-1,1.1208087E0,3.134573E-1,-1.5638766E-1,-5.827823E-1,-1.19228736E-1,1.1950951E-1,-1.4014408E-1,5.0241035E-1,2.0998004E-1,-6.565897E-1,8.4023124E-1,-7.950615E-1,-1.1119592E0,-1.126887E-1,2.7111518E-1,-1.012869E-1,-4.463638E-1,1.2210866E-1,-1.882007E-1,5.5874926E-1,-3.580705E-2,4.1883428E-2,-1.2943564E-1,-2.7391645E-1,-7.7293485E-1,-1.5152271E-1,6.919214E-1,7.125658E-1,2.09959E-1,-5.124725E-1,2.598572E-1,-1.0929493E0,-2.055764E-1,9.0300895E-2,-1.7495489E-1,-6.8906076E-2,2.6746544E-1,3.102335E-1,-1.958117E-1,9.055132E-2,5.98704E-1,2.7171937E-1,-1.3285221E-2,-2.2554623E-1,-1.0211909E0,-1.1143351E0,-3.9934498E-1,-2.137813E-1,1.3180143E-2,-1.0764799E0,3.9448074E-1,6.573253E-1,-1.817911E-1,-5.9127575E-1,-2.5883994E-1,7.193927E-1,3.777569E-2,-6.1026275E-1,1.0538159E-2,9.156662E-1,4.2295834E-1,-4.13513E-1,2.3484556E-1,9.5001185E-1,-6.368381E-2,-1.2390019E-1,-1.2295102E0,-8.203027E-1,8.210323E-1,-1.0422829E0,-3.449093E-1],"categories":[],"categories_nodes":[],"categories_segments":[],"categories_sizes":[],"default_left":[true,true,true,true,true,true,true,false,true,true,true,true,true,true,true,true,false,true,true,true,true,true,true,true,true,true,true,true,true,true,false,true,true,true,true,true,true,true,true,false,false,true,true,true,true,true,true,true,true,true,true,true,true,true,true,false,false,false,false,false,false,false,false,false,false,false,false,false,false,false,false,false,false,false,false,false,false,false,false,false,false,false,false,false,false,false,false,false,false,false,false,false,false,false,false,false,false,false,false,false,false],"id":5,"left_children":[1,3,5,7,9,11,13,-1,15,17,19,21,23,25,27,29,-1,31,33,35,37,39,41,43,45,47,49,51,53,55,-1,57,59,61,63,65,67,69,71,-1,-1,73,75,77,79,81,83,85,87,89,91,93,95,97,99,-1,-1,-1,-1,-1,-1,-1,-1,-1,-1,-1,-1,-1,-1,-1,-1,-1,-1,-1,-1,-1,-1,-1,-1,-1,-1,-1,-1,-1,-1,-1,-1,-1,-1,-1,-1,-1,-1,-1,-1,-1,-1,-1,-1,-1,-1],"loss_changes":[2.6437662E2,2.6945892E2,2.2275781E2,3.7694702E0,4.9171753E1,3.6608887E2,9.176834E1,0E0,7.442322E-1,1.4652704E1,5.4338684E1,3.8806763E0,7.154816E1,1.8797716E2,6.449461E1,5.7666016E-1,0E0,4.934054E0,7.1524115E0,1.6879631E1,3.5220383E1,2.5379837E0,2.0427856E0,4.206501E1,2.4434265E1,1.5139737E2,7.4188614E1,3.1649721E1,1.8311577E1,6.444978E-1,0E0,4.312298E0,4.3602886E0,6.5627375E0,7.2948074E0,1.4080911E1,1.25231905E1,1.9830307E1,3.2149055E1,0E0,0E0,4.2534637E0,2.6513672E-1,4.5305744E1,5.2047367E1,1.6565332E1,2.3823761E1,2.2969077E2,2.0127951E2,4.810431E1,2.733362E1,1.671717E2,1.7071579E1,8.406002E1,1.8207031E1,0E0,0E0,0E0,0E0,0E0,0E0,0E0,0E0,0E0,0E0,0E0,0E0,0E0,0E0,0E0,0E0,0E0,0E0,0E0,0E0,0E0,0E0,0E0,0E0,0E0,0E0,0E0,0E0,0E0,0E0,0E0,0E0,0E0,0E0,0E0,0E0,0E0,0E0,0E0,0E0,0E0,0E0,0E0,0E0,0E0,0E0],"parents":[2147483647,0,0,1,1,2,2,3,3,4,4,5,5,6,6,8,8,9,9,10,10,11,11,12,12,13,13,14,14,15,15,17,17,18,18,19,19,20,20,21,21,22,22,23,23,24,24,25,25,26,26,27,27,28,28,29,29,31,31,32,32,33,33,34,34,35,35,36,36,37,37,38,38,41,41,42,42,43,43,44,44,45,45,46,46,47,47,48,48,49,49,50,50,51,51,52,52,53,53,54,54],"right_children":[2,4,6,8,10,12,14,-1,16,18,20,22,24,26,28,30,-1,32,34,36,38,40,42,44,46,48,50,52,54,56,-1,58,60,62,64,66,68,70,72,-1,-1,74,76,78,80,82,84,86,88,90,92,94,96,98,100,-1,-1,-1,-1,-1,-1,-1,-1,-1,-1,-1,-1,-1,-1,-1,-1,-1,-1,-1,-1,-1,-1,-1,-1,-1,-1,-1,-1,-1,-1,-1,-1,-1,-1,-1,-1,-1,-1,-1,-1,-1,-1,-1,-1,-1,-1],"split_conditions":[2.25E1,7.5E0,3.65E1,7.463239E0,9.5E0,7.5E0,1.8589493E2,-1.3258527E-1,3.7242985E1,2.5E0,1.036E5,3.15E1,4E0,1.8539493E2,2.995E2,2.85E1,4.985253E-2,2.9520876E1,2.1074606E1,1.03258E5,4.5E0,6.463239E0,5.95E1,1.155E2,1.03491E5,9.938422E1,1.086015E5,5.75E1,7.5E0,1.04828E5,3.3624262E-1,3E1,2.7315536E1,7.463239E0,3E1,4.65E1,1.01842E5,1.84E2,1.92E2,-1.9697692E-1,2.5206938E-1,1.5E0,1.1385E3,6.5E0,2.6E1,2.09295E1,1.8689493E2,7.5E0,7.5E0,9.988422E1,1.10599E5,7.5E0,1.5E0,7.5E0,2.815E2,-4.5456816E-2,2.0757644E-1,2.1376975E-1,6.29877E-2,-1.5374176E-1,7.795717E-2,-3.278848E-1,-6.1672922E-2,2.709027E-2,-5.2486468E-2,-2.0671824E-2,8.023964E-2,9.307005E-2,-5.8743514E-2,2.7165396E-2,1.796112E-1,8.151581E-2,-3.9855666E-3,-6.766387E-2,-3.0635726E-1,-3.3430052E-1,-1.19803496E-1,-6.413439E-2,3.954043E-3,-3.22944E-1,1.18344225E-1,1.971976E-1,-5.453733E-2,-1.7738274E-1,-7.7651985E-2,2.1581782E-1,1.13327075E-2,-1.8307883E-1,3.1614478E-3,2.7469987E-1,1.2688752E-1,-1.240539E-1,7.045367E-2,2.8500357E-1,-1.9105144E-2,-3.717006E-2,-3.6885306E-1,-2.4609083E-1,2.463097E-1,-3.126849E-1,-1.034728E-1],"split_indices":[21,13,20,6,20,13,8,0,10,21,11,21,18,8,21,20,0,17,10,5,21,6,21,21,5,21,11,21,19,11,0,9,10,12,9,20,11,15,8,0,0,3,4,6,2,17,15,13,13,20,11,13,14,13,20,0,0,0,0,0,0,0,0,0,0,0,0,0,0,0,0,0,0,0,0,0,0,0,0,0,0,0,0,0,0,0,0,0,0,0,0,0,0,0,0,0,0,0,0,0,0],"split_type":[0,0,0,0,0,0,0,0,0,0,0,0,0,0,0,0,0,0,0,0,0,0,0,0,0,0,0,0,0,0,0,0,0,0,0,0,0,0,0,0,0,0,0,0,0,0,0,0,0,0,0,0,0,0,0,0,0,0,0,0,0,0,0,0,0,0,0,0,0,0,0,0,0,0,0,0,0,0,0,0,0,0,0,0,0,0,0,0,0,0,0,0,0,0,0,0,0,0,0,0,0],"sum_hessian":[2.3496008E4,4.931669E3,1.8564338E4,3.0951395E2,4.6221553E3,5.4732437E3,1.3091095E4,1.0765622E0,3.0843738E2,7.9120953E2,3.8309456E3,4.5479117E2,5.0184526E3,8.223034E3,4.8680605E3,3.0722983E2,1.207554E0,1.3453754E2,6.56672E2,9.9952094E2,2.8314246E3,2.547829E0,4.5224335E2,3.8688352E3,1.1496174E3,6.958076E3,1.2649581E3,4.569635E3,2.9842557E2,2.180152E0,3.0504968E2,1.0701803E2,2.751951E1,3.4270702E1,6.224013E2,5.0344376E2,4.9607715E2,5.0038214E2,2.3310425E3,1.2973626E0,1.2504662E0,3.3816326E1,4.18427E2,3.5593167E3,3.0951855E2,2.6828842E2,8.81329E2,4.559544E3,2.3985325E3,9.995268E2,2.654314E2,1.7421276E3,2.8275073E3,1.3838058E2,1.6004498E2,1.0699505E0,1.1102016E0,2.0825663E1,8.619237E1,1.4706965E1,1.2812544E1,1.376126E1,2.0509441E1,1.3062659E2,4.9177472E2,2.2167911E2,2.8176465E2,5.406803E1,4.4200912E2,9.518883E1,4.051933E2,1.8259088E3,5.0513373E2,1.0178587E1,2.3637737E1,4.1647476E2,1.9522501E0,1.9735474E3,1.5857694E3,2.5310541E1,2.84208E2,2.505197E1,2.4323645E2,4.9593478E2,3.8539423E2,5.6319714E2,3.9963467E3,7.6718646E2,1.631346E3,2.7388806E2,7.2563873E2,1.1058208E2,1.548493E2,1.8059381E2,1.5615338E3,2.814458E3,1.3049387E1,9.248221E1,4.5898373E1,9.734966E1,6.2695316E1],"tree_param":{"num_deleted":"0","num_feature":"24","num_nodes":"101","size_leaf_vector":"0"}},{"base_weights":[-6.226059E-4,9.325186E-2,-7.3567115E-2,9.4366556E-1,4.4800047E-2,-1.9630593E-1,-5.596979E-4,-1.7525795E-1,1.0231926E0,-1.7279129E-1,7.676435E-2,-1.0305107E0,-9.2466295E-2,-6.760997E-2,1.3147423E-1,9.371793E-1,-4.3357545E-1,7.5750065E-1,1.0663829E0,-4.9741652E-2,-3.337213E-1,-1.0108028E-1,1.1777546E-1,-5.607686E-1,-1.0530179E0,-1.5903446E-1,2.865062E-1,1.4677025E-2,-3.7101778E-1,8.969322E-2,5.445383E-1,-8.7570554E-1,-1.1665557E-1,9.274837E-1,-5.23281E-1,1.0729096E0,4.7882684E-2,2.9928115E-1,-8.8823624E-2,-1.4720447E-1,-4.9078193E-1,-4.0882096E-2,-4.1251808E-1,2.292248E-1,6.744466E-2,-8.1662846E-1,-4.2345773E-2,-1.0586045E0,-1.4698461E-3,-2.1584424E-1,1.5159643E-1,5.500236E-1,-6.0717206E-2,-3.646114E-2,4.7999394E-1,-7.227147E-1,-2.0090778E-1,1.8818784E-1,2.7150778E-2,9.843179E-1,3.346727E-1,4.727145E-2,-9.894931E-1,1.0250331E-1,-8.510684E-1,6.182374E-1,1.0558757E0,-1.1772597E0,7.17731E-1,1.0005555E-1,1.0750333E0,6.430864E-1,-5.5897033E-1,7.706457E-1,1.1342437E-1,-1.7910561E-1,8.340156E-2,-1.4170428E-2,-4.5044044E-1,-5.49018E-1,1.5588638E-1,-4.665078E-3,-3.6792827E-1,-3.100762E-1,-1.3484435E0,5.147784E-2,2.834565E-1,7.9627293E-1,5.9723463E-2,5.5300806E-2,-9.499811E-1,-4.844795E-1,9.94917E-1,-9.482794E-1,-1.0813769E0,-6.862884E-1,8.741392E-1,-6.145875E-1,-1.8436006E-1,4.587227E-2,8.891782E-1,1.1813015E-1,1.2472318E0,-1.5877534E-1,7.4990815E-1,-4.4603262E-2,1.1189451E0,1.0258329E0,2.7857435E-1,-4.8230258E-1,-8.6379915E-1,-1.42164165E-2,-6.532146E-1,-2.1346208E-1,3.376616E-1,-2.2924486E-1,5.570454E-2,1.1193632E0,5.147958E-1,-1.0644897E0,6.2617475E-1],"categories":[],"categories_nodes":[],"categories_segments":[],"categories_sizes":[],"default_left":[true,true,true,true,true,true,true,true,true,true,true,true,true,true,true,false,true,true,true,true,true,true,true,true,true,true,true,true,true,true,true,true,true,true,true,true,true,true,true,true,true,true,true,true,true,true,true,true,true,true,true,true,true,true,true,true,true,true,true,true,true,false,false,false,false,false,false,false,false,false,false,false,false,false,false,false,false,false,false,false,false,false,false,false,false,false,false,false,false,false,false,false,false,false,false,false,false,false,false,false,false,false,false,false,false,false,false,false,false,false,false,false,false,false,false,false,false,false,false,false,false],"id":6,"left_children":[1,3,5,7,9,11,13,15,17,19,21,23,25,27,29,-1,31,33,35,37,39,41,43,45,47,49,51,53,55,57,59,61,63,65,67,69,71,73,75,77,79,81,83,85,87,89,91,93,95,97,99,101,103,105,107,109,111,113,115,117,119,-1,-1,-1,-1,-1,-1,-1,-1,-1,-1,-1,-1,-1,-1,-1,-1,-1,-1,-1,-1,-1,-1,-1,-1,-1,-1,-1,-1,-1,-1,-1,-1,-1,-1,-1,-1,-1,-1,-1,-1,-1,-1,-1,-1,-1,-1,-1,-1,-1,-1,-1,-1,-1,-1,-1,-1,-1,-1,-1,-1],"loss_changes":[1.573963E2,4.1409283E2,1.15905716E2,4.838437E1,6.6157524E1,4.1779807E2,7.181885E1,1.0981706E1,4.9978027E0,2.4110783E1,6.0495544E1,5.0545654E0,1.08304665E2,1.3433101E2,4.7104534E1,0E0,4.1785083E0,1.6638199E1,2.8251648E0,9.460921E0,1.5388382E1,2.9126812E1,3.7786957E1,3.4874458E0,2.9849243E0,6.445776E1,5.873223E1,1.0075154E2,6.8530136E1,1.5286987E1,2.2816086E1,1.3702374E0,3.1370428E0,1.9622345E0,8.419138E0,7.807007E-1,1.7327679E0,6.0342426E0,9.6982E0,9.783821E0,1.08591385E1,1.5441395E1,2.3713383E1,2.0191658E1,2.6086264E1,2.1133337E0,4.9896455E0,2.4505615E-1,2.811361E0,3.8638184E1,4.4020683E1,1.0970788E2,2.2192915E1,3.5940178E1,4.580715E1,1.2263153E1,6.5438545E1,5.7943657E1,1.1137117E1,4.527878E0,7.052484E1,0E0,0E0,0E0,0E0,0E0,0E0,0E0,0E0,0E0,0E0,0E0,0E0,0E0,0E0,0E0,0E0,0E0,0E0,0E0,0E0,0E0,0E0,0E0,0E0,0E0,0E0,0E0,0E0,0E0,0E0,0E0,0E0,0E0,0E0,0E0,0E0,0E0,0E0,0E0,0E0,0E0,0E0,0E0,0E0,0E0,0E0,0E0,0E0,0E0,0E0,0E0,0E0,0E0,0E0,0E0,0E0,0E0,0E0,0E0,0E0],"parents":[2147483647,0,0,1,1,2,2,3,3,4,4,5,5,6,6,7,7,8,8,9,9,10,10,11,11,12,12,13,13,14,14,16,16,17,17,18,18,19,19,20,20,21,21,22,22,23,23,24,24,25,25,26,26,27,27,28,28,29,29,30,30,31,31,32,32,33,33,34,34,35,35,36,36,37,37,38,38,39,39,40,40,41,41,42,42,43,43,44,44,45,45,46,46,47,47,48,48,49,49,50,50,51,51,52,52,53,53,54,54,55,55,56,56,57,57,58,58,59,59,60,60],"right_children":[2,4,6,8,10,12,14,16,18,20,22,24,26,28,30,-1,32,34,36,38,40,42,44,46,48,50,52,54,56,58,60,62,64,66,68,70,72,74,76,78,80,82,84,86,88,90,92,94,96,98,100,102,104,106,108,110,112,114,116,118,120,-1,-1,-1,-1,-1,-1,-1,-1,-1,-1,-1,-1,-1,-1,-1,-1,-1,-1,-1,-1,-1,-1,-1,-1,-1,-1,-1,-1,-1,-1,-1,-1,-1,-1,-1,-1,-1,-1,-1,-1,-1,-1,-1,-1,-1,-1,-1,-1,-1,-1,-1,-1,-1,-1,-1,-1,-1,-1,-1,-1],"split_conditions":[4.95E1,7.5E0,5.35E1,4.75E1,8.5E0,7.5E0,1.87E2,1.75E1,7.65E1,2.15E1,2.3010267E1,5.95E1,3.5E0,1.8539493E2,3.165E2,2.811538E-1,2.95E1,4.45E1,5.17E2,2.174538E1,1.2245E3,2.505E2,1.55E1,5.65E1,8.185E2,2.695E2,8E1,3.165E2,1.8539493E2,2.4861053E1,7.5E0,1.02814E5,1.054075E5,1.5E0,1.89E2,1.878987E1,1.8E1,1.03661E5,8.75E1,9E1,1.0573E5,1.175E2,1.025E2,1.035545E5,1.925941E1,5.5E0,2.9408625E1,8.75E1,1.06054E5,2.6E1,1.215E2,6.75E1,1.115E2,1.5E0,7.5E0,7.5E0,1.87E2,7.5E0,2.1383984E1,2.7967146E1,5E-1,1.4181435E-2,-2.9684794E-1,3.0750994E-2,-2.5532052E-1,1.8547122E-1,3.1676272E-1,-3.531779E-1,2.153193E-1,3.0016666E-2,3.2251E-1,1.9292592E-1,-1.6769111E-1,2.311937E-1,3.4027312E-2,-5.3731684E-2,2.5020469E-2,-4.2511285E-3,-1.3513213E-1,-1.6470541E-1,4.6765916E-2,-1.3995235E-3,-1.1037848E-1,-9.302287E-2,-4.0453306E-1,1.5443352E-2,8.5036956E-2,2.3888189E-1,1.7917039E-2,1.6590243E-2,-2.8499433E-1,-1.4534386E-1,2.9847512E-1,-2.8448382E-1,-3.244131E-1,-2.0588653E-1,2.6224178E-1,-1.8437625E-1,-5.5308018E-2,1.37616815E-2,2.6675346E-1,3.5439044E-2,3.7416956E-1,-4.7632605E-2,2.2497246E-1,-1.3380979E-2,3.3568355E-1,3.0774987E-1,8.3572306E-2,-1.4469078E-1,-2.5913975E-1,-4.264925E-3,-1.9596438E-1,-6.403863E-2,1.0129848E-1,-6.877346E-2,1.6711364E-2,3.3580896E-1,1.5443873E-1,-3.1934693E-1,1.8785243E-1],"split_indices":[21,13,20,20,20,13,15,21,20,21,10,21,3,15,20,0,20,21,4,17,0,4,21,21,4,4,2,20,8,17,13,11,5,3,8,17,21,5,16,9,5,20,20,11,17,4,10,21,5,2,21,21,21,7,13,19,8,13,10,10,3,0,0,0,0,0,0,0,0,0,0,0,0,0,0,0,0,0,0,0,0,0,0,0,0,0,0,0,0,0,0,0,0,0,0,0,0,0,0,0,0,0,0,0,0,0,0,0,0,0,0,0,0,0,0,0,0,0,0,0,0],"split_type":[0,0,0,0,0,0,0,0,0,0,0,0,0,0,0,0,0,0,0,0,0,0,0,0,0,0,0,0,0,0,0,0,0,0,0,0,0,0,0,0,0,0,0,0,0,0,0,0,0,0,0,0,0,0,0,0,0,0,0,0,0,0,0,0,0,0,0,0,0,0,0,0,0,0,0,0,0,0,0,0,0,0,0,0,0,0,0,0,0,0,0,0,0,0,0,0,0,0,0,0,0,0,0,0,0,0,0,0,0,0,0,0,0,0,0,0,0,0,0,0,0],"sum_hessian":[2.2983525E4,1.0049826E4,1.29337E4,5.407228E2,9.509104E3,4.8232485E3,8.1104517E3,3.5801548E1,5.0492123E2,1.2174081E3,8.291695E3,5.329361E2,4.290312E3,5.3792275E3,2.731224E3,6.2515225E0,2.9550026E1,7.3194E1,4.3172723E2,6.9064166E2,5.267665E2,1.5534958E3,6.738199E3,2.5552551E1,5.0738354E2,3.6497908E3,6.4052136E2,4.232332E3,1.1468958E3,2.4814456E3,2.4977856E2,1.1601614E1,1.7948412E1,6.486154E1,8.332462E0,4.289252E2,2.8020415E0,6.887687E1,6.217648E2,2.4168797E2,2.8507852E2,1.3028062E3,2.506897E2,2.0951897E3,4.64301E3,1.6723633E1,8.8289175E0,5.0469553E2,2.6880028E0,3.0857568E3,5.64034E2,3.638224E2,2.7669894E2,3.8140867E3,4.1824515E2,3.728311E2,7.7406464E2,9.629461E2,1.5184994E3,7.9497986E1,1.7028058E2,1.3374639E0,1.0264151E1,1.4486014E1,3.4623976E0,2.0734776E1,4.4126766E1,5.490495E0,2.8419666E0,1.0390984E0,4.2788608E2,1.3844554E0,1.4175861E0,1.858802E1,5.0288845E1,4.079E2,2.1386478E2,1.6871637E2,7.29716E1,2.6166513E2,2.3413399E1,1.1738307E3,1.2897548E2,2.2715744E2,2.3532259E1,4.902667E2,1.604923E3,4.7601734E1,4.5954077E3,2.2960649E0,1.4427568E1,6.5639544E0,2.2649636E0,9.364725E1,4.1104828E2,1.629656E0,1.058347E0,2.2446138E2,2.8612954E3,4.9425082E2,6.978317E1,2.2537854E2,1.3844385E2,2.4755708E2,2.9141867E1,3.7883516E3,2.5735033E1,1.1163252E2,3.0661264E2,1.3951382E2,2.3331726E2,5.48642E2,2.2542265E2,2.610506E2,7.0189545E2,1.5145912E2,1.3670403E3,6.066523E1,1.8832754E1,2.890234E1,1.4137823E2],"tree_param":{"num_deleted":"0","num_feature":"24","num_nodes":"121","size_leaf_vector":"0"}},{"base_weights":[-4.3085523E-4,-1.4983451E-1,2.8317483E-2,-1.0444568E0,-1.1603085E-1,9.5492356E-2,-4.8834763E-2,4.0124856E-2,-1.6412431E-1,8.2702285E-1,4.379143E-2,-2.4109283E-1,3.6533482E-3,-2.82761E-1,8.759016E-2,-8.6465664E-2,-2.8512552E-1,-1.24533884E-1,9.5281804E-1,-2.8991127E-1,6.40277E-2,-7.5142574E-1,5.4991823E-1,9.833211E-2,-2.5424525E-1,-1.5879974E-1,-9.4368464E-1,3.0498204E-1,3.3233337E-2,-3.0217943E-1,-4.5030914E-2,-3.4932142E-1,1.3120216E-1,3.25678E-1,-6.1911196E-1,6.4265954E-1,1.0224428E0,5.9693754E-1,-3.5934922E-1,2.6002785E-2,2.1897079E-1,-2.6251158E-1,-1.0021739E0,8.185898E-1,-4.922989E-2,-2.4698446E-2,3.6767533E-1,-6.319821E-1,-5.3395536E-2,-2.8552976E-1,5.5967766E-1,-1.254063E0,-4.0645546E-1,-5.232934E-1,4.056808E-1,1.0140877E-1,-2.1610783E-1,-1.00418635E-1,-4.7144523E-1,7.377887E-2,-1.333708E-1,-7.869507E-1,-3.080914E-1,-8.5949486E-1,3.4046394E-1,9.202492E-1,7.806347E-2,-3.4073222E-1,-9.772337E-1,1.0009993E0,2.3167093E-1,1.0298121E0,3.5863154E-2,7.778934E-1,-5.6682485E-1,-2.1909364E-1,-1.1257021E0,4.493422E-2,-4.2681998E-1,1.9551522E-1,9.549246E-1,-6.729719E-1,4.3688372E-1,-1.0481074E0,-5.1069725E-1,9.7206146E-1,4.9703655E-1,-5.177077E-1,1.6031945E-1,2.7718753E-1,-6.550512E-2,5.4840094E-1,-5.9614845E-2,-1.9586171E-1,-9.8108315E-1,7.5089043E-1,-1.1344292E-1],"categories":[],"categories_nodes":[],"categories_segments":[],"categories_sizes":[],"default_left":[true,true,true,false,true,true,true,true,true,true,true,true,true,true,true,true,true,true,true,true,true,true,true,true,true,true,true,true,true,true,true,true,true,true,true,true,true,true,true,true,true,true,true,true,true,true,true,true,true,false,false,false,false,false,false,false,false,false,false,false,false,false,false,false,false,false,false,false,false,false,false,false,false,false,false,false,false,false,false,false,false,false,false,false,false,false,false,false,false,false,false,false,false,false,false,false,false],"id":7,"left_children":[1,3,5,-1,7,9,11,13,15,17,19,21,23,25,27,29,31,33,35,37,39,41,43,45,47,49,51,53,55,57,59,61,63,65,67,69,71,73,75,77,79,81,83,85,87,89,91,93,95,-1,-1,-1,-1,-1,-1,-1,-1,-1,-1,-1,-1,-1,-1,-1,-1,-1,-1,-1,-1,-1,-1,-1,-1,-1,-1,-1,-1,-1,-1,-1,-1,-1,-1,-1,-1,-1,-1,-1,-1,-1,-1,-1,-1,-1,-1,-1,-1],"loss_changes":[9.686501E1,1.0993604E2,9.8025696E1,0E0,2.6351124E1,3.823566E2,8.883931E1,1.2696034E1,2.5178543E1,8.000076E1,6.3794952E1,7.625623E2,1.6890857E2,8.551017E0,8.5166855E0,1.4600747E1,2.8056137E1,1.7748947E1,1.2073914E1,3.347769E1,5.246075E1,1.4047913E2,1.19318146E2,1.6768137E2,1.4089832E2,8.411885E0,2.253313E0,1.2240671E1,9.853672E0,8.944218E0,1.4418112E1,1.6146317E1,2.9470104E1,6.0981293E0,3.445157E0,1.6081749E1,3.4512024E0,8.779742E0,5.3663284E1,6.1325996E1,3.010247E1,1.1240846E2,1.658783E1,2.4765472E1,2.2695757E1,4.281774E1,1.2255504E2,9.7970764E1,5.8707882E1,0E0,0E0,0E0,0E0,0E0,0E0,0E0,0E0,0E0,0E0,0E0,0E0,0E0,0E0,0E0,0E0,0E0,0E0,0E0,0E0,0E0,0E0,0E0,0E0,0E0,0E0,0E0,0E0,0E0,0E0,0E0,0E0,0E0,0E0,0E0,0E0,0E0,0E0,0E0,0E0,0E0,0E0,0E0,0E0,0E0,0E0,0E0,0E0],"parents":[2147483647,0,0,1,1,2,2,4,4,5,5,6,6,7,7,8,8,9,9,10,10,11,11,12,12,13,13,14,14,15,15,16,16,17,17,18,18,19,19,20,20,21,21,22,22,23,23,24,24,25,25,26,26,27,27,28,28,29,29,30,30,31,31,32,32,33,33,34,34,35,35,36,36,37,37,38,38,39,39,40,40,41,41,42,42,43,43,44,44,45,45,46,46,47,47,48,48],"right_children":[2,4,6,-1,8,10,12,14,16,18,20,22,24,26,28,30,32,34,36,38,40,42,44,46,48,50,52,54,56,58,60,62,64,66,68,70,72,74,76,78,80,82,84,86,88,90,92,94,96,-1,-1,-1,-1,-1,-1,-1,-1,-1,-1,-1,-1,-1,-1,-1,-1,-1,-1,-1,-1,-1,-1,-1,-1,-1,-1,-1,-1,-1,-1,-1,-1,-1,-1,-1,-1,-1,-1,-1,-1,-1,-1,-1,-1,-1,-1,-1,-1],"split_conditions":[1.75E1,7.5E0,6.75E1,-3.1333706E-1,1.035545E5,7.5E0,7.5E0,1.01955E5,4.35E1,5.85E1,2.0721424E1,1.305E2,1.215E2,1.05E1,2.2302532E1,1.038355E5,1.105E2,4.75E1,8.75E1,2.6E1,4E0,1.165E2,1.655E2,1.155E2,7.5E0,1.06204E5,2.6902122E1,1.79E2,7.75E1,1.03816E5,1.047045E5,2.5E0,2.6E1,1.75E1,5.95E1,4.15E1,5.21E2,9.95E1,1.145E2,1.455E2,2.835E2,9.15E1,3.5E0,1.185E2,1.655E2,2.1826145E1,7.5E0,1.475E2,9.888422E1,-8.565893E-2,1.679033E-1,-3.7621891E-1,-1.2193664E-1,-1.5698802E-1,1.2170424E-1,3.0422634E-2,-6.483235E-2,-3.0125592E-2,-1.4143358E-1,2.2133661E-2,-4.0011242E-2,-2.3608522E-1,-9.2427425E-2,-2.5784847E-1,1.0213918E-1,2.7607477E-1,2.3419043E-2,-1.0221967E-1,-2.9317012E-1,3.0029982E-1,6.950128E-2,3.0894363E-1,1.0758947E-2,2.3336804E-1,-1.7004746E-1,-6.572809E-2,-3.3771065E-1,1.3480267E-2,-1.28046E-1,5.8654565E-2,2.864774E-1,-2.0189159E-1,1.3106512E-1,-3.1443223E-1,-1.5320918E-1,2.9161844E-1,1.4911097E-1,-1.5531231E-1,4.8095837E-2,8.315626E-2,-1.9651536E-2,1.645203E-1,-1.7884454E-2,-5.8758516E-2,-2.9432496E-1,2.2526714E-1,-3.4032878E-2],"split_indices":[20,13,21,0,5,13,13,5,21,20,10,20,20,12,17,5,21,21,20,2,18,21,21,21,19,11,17,15,21,5,5,20,2,21,21,21,4,16,20,20,20,20,3,21,20,17,19,20,21,0,0,0,0,0,0,0,0,0,0,0,0,0,0,0,0,0,0,0,0,0,0,0,0,0,0,0,0,0,0,0,0,0,0,0,0,0,0,0,0,0,0,0,0,0,0,0,0],"split_type":[0,0,0,0,0,0,0,0,0,0,0,0,0,0,0,0,0,0,0,0,0,0,0,0,0,0,0,0,0,0,0,0,0,0,0,0,0,0,0,0,0,0,0,0,0,0,0,0,0,0,0,0,0,0,0,0,0,0,0,0,0,0,0,0,0,0,0,0,0,0,0,0,0,0,0,0,0,0,0,0,0,0,0,0,0,0,0,0,0,0,0,0,0,0,0,0,0],"sum_hessian":[2.2550422E4,3.6382756E3,1.8912146E4,1.3137982E2,3.5068958E3,1.0109647E4,8.802499E3,8.257891E2,2.6811067E3,6.6634564E2,9.443302E3,1.8870079E3,6.9154917E3,1.0520025E2,7.2058887E2,1.6340726E3,1.047034E3,7.780592E1,5.8853973E2,5.391537E2,8.904147E3,1.1470323E3,7.399755E2,5.0589043E3,1.8565873E3,8.962977E1,1.5570479E1,1.4321428E2,5.773746E2,2.6228677E2,1.3717859E3,9.0729425E2,1.397398E2,4.090857E1,3.6897354E1,1.09771065E2,4.7876868E2,3.8597446E1,5.0055624E2,7.150497E3,1.7536506E3,3.8954196E2,7.574904E2,5.1063083E2,2.293447E2,3.4732856E3,1.5856187E3,6.4374786E2,1.2128394E3,7.670296E1,1.292681E1,9.023142E0,6.547338E0,1.5069209E1,1.2814508E2,4.5386978E2,1.2350482E2,1.20384544E2,1.4190222E2,5.850744E2,7.867115E2,7.656117E1,8.307331E2,2.3827457E1,1.15912346E2,1.122902E1,2.9679546E1,2.1857922E1,1.5039434E1,5.78747E1,5.1896366E1,4.751755E2,3.5931692E0,3.3690422E1,4.907025E0,4.2420535E2,7.635089E1,6.864413E3,2.8608392E2,1.7007129E3,5.293775E1,2.4550063E2,1.4404134E2,6.917105E2,6.5779945E1,3.4428616E2,1.6634465E2,7.042619E1,1.589185E2,4.1289722E2,3.0603884E3,1.1141127E3,4.7150592E2,2.8689743E2,3.5685043E2,8.3459694E1,1.1293796E3],"tree_param":{"num_deleted":"0","num_feature":"24","num_nodes":"97","size_leaf_vector":"0"}},{"base_weights":[-4.3351587E-4,1.9968736E-1,-1.9700918E-2,9.9113154E-1,1.727085E-1,-6.3031584E-2,5.00424E-2,1.0016867E0,1.9492061E-1,1.4272644E-1,4.57002E-1,-7.0804775E-1,-2.6995096E-2,2.3030455E-1,1.9021851E-3,1.8035679E-1,-1.1614199E-1,7.327286E-2,6.4763784E-1,1.4932467E-1,-8.7392306E-1,1.1001595E-1,-6.192993E-2,6.8151736E-1,-3.3580828E-1,1.5993567E-1,-1.5816239E-1,7.464766E-2,2.7790588E-1,-2.837387E-3,-6.856296E-1,4.298997E-1,-2.6209843E-1,2.564984E-1,8.139826E-1,-3.4110013E-1,4.9371544E-1,-5.549026E-1,-9.5104706E-1,-3.108287E-1,1.417921E-1,-4.3214193E-1,-5.1703665E-2,1.7855187E-1,7.913293E-1,-7.755853E-1,1.5281726E-1,8.511318E-2,6.135682E-1,3.530245E-2,-3.1977984E-1,-9.002466E-3,3.347915E-1,2.9916668E-1,-5.872541E-1,-2.0886618E-1,1.240007E-1,-1.0552384E0,5.83594E-3,6.280853E-1,-5.3050107E-1,-7.794042E-1,8.7784E-2,-4.9132776E-2,8.7060744E-1,9.546973E-1,3.1581265E-1,-4.1614807E-1,1.0153536E0,5.622394E-1,-8.062987E-1,-1.0000656E0,-2.6203415E-1,-9.978861E-1,-7.16286E-1,1.2717687E-1,-8.089093E-1,8.740701E-2,7.894832E-1,-5.7923657E-1,-1.6642544E-1,-1.8423456E-1,-3.0384239E-2,5.269146E-1,-4.0694013E-1,9.173325E-1,5.4763424E-1,-9.2480415E-1,-5.015282E-1,-9.675783E-2,3.701332E-1,1.2530248E-1,-3.495047E-1,1.0375779E0,4.0738985E-1,7.003858E-1,-9.500492E-2,-3.8793886E-1,8.9032084E-1],"categories":[],"categories_nodes":[],"categories_segments":[],"categories_sizes":[],"default_left":[true,true,true,true,true,true,true,false,false,true,true,true,true,true,true,true,true,true,true,true,true,true,true,true,true,true,true,true,true,true,true,true,true,true,true,true,true,true,true,true,true,true,true,true,true,true,true,true,true,true,true,false,false,false,false,false,false,false,false,false,false,false,false,false,false,false,false,false,false,false,false,false,false,false,false,false,false,false,false,false,false,false,false,false,false,false,false,false,false,false,false,false,false,false,false,false,false,false,false],"id":8,"left_children":[1,3,5,7,9,11,13,-1,-1,15,17,19,21,23,25,27,29,31,33,35,37,39,41,43,45,47,49,51,53,55,57,59,61,63,65,67,69,71,73,75,77,79,81,83,85,87,89,91,93,95,97,-1,-1,-1,-1,-1,-1,-1,-1,-1,-1,-1,-1,-1,-1,-1,-1,-1,-1,-1,-1,-1,-1,-1,-1,-1,-1,-1,-1,-1,-1,-1,-1,-1,-1,-1,-1,-1,-1,-1,-1,-1,-1,-1,-1,-1,-1,-1,-1],"loss_changes":[8.505052E1,4.1192116E1,6.0807964E1,3.396492E-1,1.5912788E1,2.8845605E2,6.69135E1,0E0,0E0,1.6553513E1,1.3001335E1,9.351657E1,5.6271763E1,4.1536798E2,1.5399109E2,1.5262993E1,1.3935875E1,7.32858E0,7.5367813E0,1.8291252E1,1.3013031E1,3.198733E1,3.5441414E1,4.9827454E1,1.5515817E2,1.0392086E2,9.45763E1,1.5511988E1,1.4347561E1,4.7601385E0,9.165926E0,5.970693E0,5.8085423E0,6.9838495E0,5.521263E0,4.988908E0,6.105054E0,1.401984E1,4.1432495E0,3.675614E1,7.818839E1,9.73988E0,2.5753471E1,3.354598E1,2.2290741E1,1.5071732E1,1.861742E1,4.5994324E1,3.747966E1,1.1944571E2,1.3626572E2,0E0,0E0,0E0,0E0,0E0,0E0,0E0,0E0,0E0,0E0,0E0,0E0,0E0,0E0,0E0,0E0,0E0,0E0,0E0,0E0,0E0,0E0,0E0,0E0,0E0,0E0,0E0,0E0,0E0,0E0,0E0,0E0,0E0,0E0,0E0,0E0,0E0,0E0,0E0,0E0,0E0,0E0,0E0,0E0,0E0,0E0,0E0,0E0],"parents":[2147483647,0,0,1,1,2,2,3,3,4,4,5,5,6,6,9,9,10,10,11,11,12,12,13,13,14,14,15,15,16,16,17,17,18,18,19,19,20,20,21,21,22,22,23,23,24,24,25,25,26,26,27,27,28,28,29,29,30,30,31,31,32,32,33,33,34,34,35,35,36,36,37,37,38,38,39,39,40,40,41,41,42,42,43,43,44,44,45,45,46,46,47,47,48,48,49,49,50,50],"right_children":[2,4,6,8,10,12,14,-1,-1,16,18,20,22,24,26,28,30,32,34,36,38,40,42,44,46,48,50,52,54,56,58,60,62,64,66,68,70,72,74,76,78,80,82,84,86,88,90,92,94,96,98,-1,-1,-1,-1,-1,-1,-1,-1,-1,-1,-1,-1,-1,-1,-1,-1,-1,-1,-1,-1,-1,-1,-1,-1,-1,-1,-1,-1,-1,-1,-1,-1,-1,-1,-1,-1,-1,-1,-1,-1,-1,-1,-1,-1,-1,-1,-1,-1],"split_conditions":[3.5E0,7.5E0,7.55E1,3.6298424E1,4E0,7.5E0,7.5E0,3.0050603E-1,5.8476187E-2,2.4155E3,3.5E0,5.95E1,2.318549E1,1.235E2,1.085E2,5.05E1,8.95E1,1.044975E5,8.855E2,4.75E1,8.75E1,2.6E1,2.0138262E1,9.938422E1,1.365E2,1.475E2,2.6E1,1.04845E5,2.035E2,3.45E1,2.5E0,2.65E1,1.047735E5,6.8E1,8E0,8.5E0,1.17882E5,4.15E1,3.5E0,6.75E1,1.205E2,1.05225E5,3.5E0,8.85E1,9.05E1,1.085E2,2.035E2,3.5E0,6.5E0,9.888422E1,1.795E2,-2.7007398E-3,1.00437455E-1,8.975001E-2,-1.7617624E-1,-6.265986E-2,3.7200212E-2,-3.1657153E-1,1.7507821E-3,1.884256E-1,-1.5915033E-1,-2.3382127E-1,2.63352E-2,-1.4739833E-2,2.6118225E-1,2.864092E-1,9.4743796E-2,-1.24844424E-1,3.0460608E-1,1.6867183E-1,-2.4188961E-1,-3.0001968E-1,-7.861025E-2,-2.9936585E-1,-2.1488582E-1,3.815306E-2,-2.426728E-1,2.6222104E-2,2.3684497E-1,-1.7377098E-1,-4.9927633E-2,-5.527037E-2,-9.115272E-3,1.5807438E-1,-1.2208205E-1,2.7519974E-1,1.6429028E-1,-2.7744126E-1,-1.5045847E-1,-2.902735E-2,1.1103996E-1,3.7590746E-2,-1.0485142E-1,3.1127337E-1,1.2221696E-1,2.1011575E-1,-2.8501479E-2,-1.1638166E-1,2.6709625E-1],"split_indices":[12,13,20,17,18,13,13,0,0,0,19,21,17,21,20,20,20,5,0,20,21,2,10,20,20,21,2,11,20,16,12,20,5,20,19,12,11,20,3,21,21,5,6,21,21,20,20,3,19,21,21,0,0,0,0,0,0,0,0,0,0,0,0,0,0,0,0,0,0,0,0,0,0,0,0,0,0,0,0,0,0,0,0,0,0,0,0,0,0,0,0,0,0,0,0,0,0,0,0],"split_type":[0,0,0,0,0,0,0,0,0,0,0,0,0,0,0,0,0,0,0,0,0,0,0,0,0,0,0,0,0,0,0,0,0,0,0,0,0,0,0,0,0,0,0,0,0,0,0,0,0,0,0,0,0,0,0,0,0,0,0,0,0,0,0,0,0,0,0,0,0,0,0,0,0,0,0,0,0,0,0,0,0,0,0,0,0,0,0,0,0,0,0,0,0,0,0,0,0,0,0],"sum_hessian":[2.205574E4,1.9361854E3,2.0119555E4,6.2647224E1,1.8735382E3,1.2409673E4,7.7098813E3,6.1572906E1,1.0743182E0,1.6961604E3,1.773778E2,6.556454E2,1.1754027E4,1.624209E3,6.0856724E3,1.4811558E3,2.150046E2,5.9332436E1,1.1804537E2,1.0630068E2,5.4934467E2,2.3876694E3,9.366358E3,9.037127E2,7.204963E2,3.0622654E3,3.023407E3,7.1169366E2,7.694621E2,1.8016429E2,3.4840298E1,2.8618383E1,3.0714052E1,3.598142E1,8.206396E1,4.3856712E1,6.2443974E1,1.0854542E2,4.407993E2,1.6700934E2,2.22066E3,2.5066078E2,9.115697E3,1.6241914E2,7.412936E2,3.7889374E2,3.416025E2,2.6297073E3,4.3255823E2,1.3764742E3,1.6469326E3,5.392586E2,1.7243501E2,7.516451E2,1.7817032E1,6.8404724E1,1.11759575E2,2.2361385E1,1.2478912E1,2.4009804E1,4.608579E0,1.1896824E1,1.8817228E1,2.4639011E1,1.1342407E1,6.327475E1,1.8789202E1,4.2214344E1,1.6423663E0,5.9856445E1,2.5875292E0,4.2115192E1,6.643022E1,3.6477032E2,7.602894E1,8.9259964E1,7.7749374E1,2.0496875E3,1.709725E2,1.6058478E2,9.0076004E1,1.2621262E3,7.8535713E3,1.01893456E2,6.052569E1,4.868185E2,2.5447505E2,2.4378369E2,1.3511005E2,1.592582E2,1.8234431E2,2.4077712E3,2.2193593E2,1.4020059E2,2.9235764E2,2.2478847E2,1.1516858E3,1.5597585E3,8.7174126E1],"tree_param":{"num_deleted":"0","num_feature":"24","num_nodes":"99","size_leaf_vector":"0"}},{"base_weights":[-1.3273473E-4,1.15020424E-1,-1.9538095E-2,1.009282E0,9.249067E-2,-2.766496E-2,3.2098034E-1,-7.294313E-3,1.4319779E-1,-5.1087603E-2,9.411514E-2,4.0927866E-1,-2.1211648E-1,-6.864286E-2,1.888145E-1,-8.823165E-3,1.8936454E-1,-9.5725484E-2,1.0673815E-2,8.970027E-1,8.005188E-2,-1.3386716E-1,4.8889405E-1,-5.2594846E-1,8.131958E-2,4.092229E-1,-9.2503265E-2,2.9695776E-1,-6.143892E-1,5.368385E-1,-4.1559704E-2,2.447984E-1,-2.9231358E-2,-2.1538937E-1,-6.750272E-2,-2.3941717E-1,3.9753344E-2,1.3705057E-1,1.1876994E0,2.220457E-1,3.1115837E-2,-5.322921E-1,3.2556516E-1,5.679111E-1,-4.5219034E-2,-9.387699E-1,-1.7721826E-1,5.391591E-1,-3.3756593E-1,3.7429877E-2,8.44787E-1,-1.6824012E-1,5.4932687E-2,3.6845487E-1,-3.7529206E-1,-1.4756882E0,3.614492E-1,-3.39932E-2,8.9839894E-1,1.7196994E-1,-1.23439945E-1,1.1538976E-1,3.371067E-1,-5.559953E-3,-1.3097675E0,-1.0203195E0,-1.8759702E-1,-3.854251E-2,-2.1402861E-1,-5.348048E-1,3.5410434E-1,-1.9502378E-1,5.9997387E-2,-6.0397166E-1,4.7843057E-1,8.3544415E-1,1.4341156E0,-1.6763303E-1,2.7297568E-1,-3.140222E-1,4.873249E-2,-9.8636496E-1,-5.120907E-2,4.4824463E-1,-9.2634296E-1,4.7602046E-1,1.0170922E0,-2.7429262E-1,6.348552E-1,-1.2646632E0,-3.816475E-1,2.5472787E-1,-7.484574E-1,-5.313145E-1,7.946652E-1,6.13039E-1,-5.4930955E-1],"categories":[],"categories_nodes":[],"categories_segments":[],"categories_sizes":[],"default_left":[true,true,true,false,true,true,true,true,true,true,true,true,true,true,true,true,true,true,true,true,true,true,true,true,true,true,true,true,true,true,true,true,true,true,true,true,true,true,true,true,true,true,true,true,true,true,true,true,true,false,false,false,false,false,false,false,false,false,false,false,false,false,false,false,false,false,false,false,false,false,false,false,false,false,false,false,false,false,false,false,false,false,false,false,false,false,false,false,false,false,false,false,false,false,false,false,false],"id":9,"left_children":[1,3,5,-1,7,9,11,13,15,17,19,21,23,25,27,29,31,33,35,37,39,41,43,45,47,49,51,53,55,57,59,61,63,65,67,69,71,73,75,77,79,81,83,85,87,89,91,93,95,-1,-1,-1,-1,-1,-1,-1,-1,-1,-1,-1,-1,-1,-1,-1,-1,-1,-1,-1,-1,-1,-1,-1,-1,-1,-1,-1,-1,-1,-1,-1,-1,-1,-1,-1,-1,-1,-1,-1,-1,-1,-1,-1,-1,-1,-1,-1,-1],"loss_changes":[4.8331734E1,6.2751E1,5.123163E1,0E0,1.5401392E1,5.157402E1,2.0399948E1,1.2362648E1,1.4165848E1,4.180514E1,3.2861294E1,1.6089424E1,5.75037E0,8.961392E0,2.1451675E1,8.437213E0,1.876638E1,2.971199E1,4.628062E1,1.0907539E1,1.991886E1,8.988622E0,1.3674477E1,4.164404E0,6.4909286E0,6.025466E0,8.341797E0,1.0543283E1,2.522886E1,5.5482206E0,7.8075566E0,1.47142105E1,9.512526E0,3.7376556E1,3.0220547E1,1.1640498E2,2.710559E1,4.0823283E0,1.9367752E0,1.4629063E1,1.298905E1,5.6664634E0,3.9456782E0,1.1147118E1,6.811351E0,1.9761868E0,4.5185003E0,4.8264146E0,3.9183896E0,0E0,0E0,0E0,0E0,0E0,0E0,0E0,0E0,0E0,0E0,0E0,0E0,0E0,0E0,0E0,0E0,0E0,0E0,0E0,0E0,0E0,0E0,0E0,0E0,0E0,0E0,0E0,0E0,0E0,0E0,0E0,0E0,0E0,0E0,0E0,0E0,0E0,0E0,0E0,0E0,0E0,0E0,0E0,0E0,0E0,0E0,0E0,0E0],"parents":[2147483647,0,0,1,1,2,2,4,4,5,5,6,6,7,7,8,8,9,9,10,10,11,11,12,12,13,13,14,14,15,15,16,16,17,17,18,18,19,19,20,20,21,21,22,22,23,23,24,24,25,25,26,26,27,27,28,28,29,29,30,30,31,31,32,32,33,33,34,34,35,35,36,36,37,37,38,38,39,39,40,40,41,41,42,42,43,43,44,44,45,45,46,46,47,47,48,48],"right_children":[2,4,6,-1,8,10,12,14,16,18,20,22,24,26,28,30,32,34,36,38,40,42,44,46,48,50,52,54,56,58,60,62,64,66,68,70,72,74,76,78,80,82,84,86,88,90,92,94,96,-1,-1,-1,-1,-1,-1,-1,-1,-1,-1,-1,-1,-1,-1,-1,-1,-1,-1,-1,-1,-1,-1,-1,-1,-1,-1,-1,-1,-1,-1,-1,-1,-1,-1,-1,-1,-1,-1,-1,-1,-1,-1,-1,-1,-1,-1,-1,-1],"split_conditions":[1.55E1,7.5E0,6.685E2,3.0278462E-1,1.84E2,1.92E2,1.5E0,6.75E1,1.03816E5,2.706776E1,4E0,1.9508556E1,1.0415E3,1.02027E5,3.5E0,6E0,1.05225E5,7.463239E0,7.5E0,1.9546886E1,2.2884327E1,1.04914E5,2.85859E1,2.2031487E1,1.086125E5,5.75E1,2.7756332E1,1.855E2,8E1,1.03182E5,1.82E2,2.15E1,9.85E1,7.5E0,1.92E2,1.295E2,1.05E1,2.322519E1,3.7E1,7.5E0,2.0543465E1,4E0,1.536E3,1.3345E3,3.2710472E1,4.615E2,2.6591377E1,1.0389E5,1.113E3,1.1228964E-2,2.5343612E-1,-5.0472036E-2,1.6479807E-2,1.1053646E-1,-1.1258762E-1,-4.427065E-1,1.0843477E-1,-1.019796E-2,2.695197E-1,5.1590983E-2,-3.7031986E-2,3.461693E-2,1.0113201E-1,-1.6679859E-3,-3.9293027E-1,-3.0609584E-1,-5.6279108E-2,-1.15627535E-2,-6.420859E-2,-1.6044146E-1,1.0623131E-1,-5.8507133E-2,1.7999217E-2,-1.811915E-1,1.4352918E-1,2.5063327E-1,4.302347E-1,-5.028991E-2,8.189271E-2,-9.420667E-2,1.4619747E-2,-2.959095E-1,-1.5362722E-2,1.344734E-1,-2.779029E-1,1.4280614E-1,3.0512768E-1,-8.228779E-2,1.9045657E-1,-3.7939897E-1,-1.1449426E-1,7.641836E-2,-2.2453722E-1,-1.5939435E-1,2.3839958E-1,1.8391171E-1,-1.6479287E-1],"split_indices":[21,13,20,0,15,15,14,20,11,10,16,17,20,11,3,2,11,6,13,17,17,5,10,17,11,4,10,4,2,5,8,20,16,13,8,20,20,10,21,13,10,18,21,20,10,21,17,11,20,0,0,0,0,0,0,0,0,0,0,0,0,0,0,0,0,0,0,0,0,0,0,0,0,0,0,0,0,0,0,0,0,0,0,0,0,0,0,0,0,0,0,0,0,0,0,0,0],"split_type":[0,0,0,0,0,0,0,0,0,0,0,0,0,0,0,0,0,0,0,0,0,0,0,0,0,0,0,0,0,0,0,0,0,0,0,0,0,0,0,0,0,0,0,0,0,0,0,0,0,0,0,0,0,0,0,0,0,0,0,0,0,0,0,0,0,0,0,0,0,0,0,0,0,0,0,0,0,0,0,0,0,0,0,0,0,0,0,0,0,0,0,0,0,0,0,0,0],"sum_hessian":[2.1626912E4,3.1182153E3,1.8508697E4,7.555248E1,3.0426628E3,1.807816E4,4.305373E2,1.0254894E3,2.0171733E3,1.516246E4,2.9156997E3,3.6955853E2,6.0978752E1,7.816245E2,2.4386494E2,4.7007806E2,1.5470953E3,8.801008E3,6.3614517E3,4.911106E1,2.8665886E3,4.71582E1,3.2240033E2,2.9082466E1,3.1896286E1,3.6403347E1,7.452211E2,2.1548267E2,2.8382278E1,2.5734224E1,4.443438E2,1.2340355E3,3.1305975E2,1.6783229E3,7.122685E3,6.6188104E2,5.6995703E3,1.3995324E1,3.5115738E1,7.338107E2,2.1327778E3,2.5171019E1,2.1987183E1,2.8079593E2,4.160441E1,1.2542674E1,1.6539791E1,1.5102362E1,1.6793924E1,2.0225233E1,1.6178114E1,4.9222656E2,2.5299457E2,1.9517657E2,2.0306093E1,1.4803828E1,1.357845E1,1.0330466E1,1.5403757E1,1.2285604E2,3.214878E2,5.147077E2,7.193279E2,3.0836383E2,4.6959305E0,5.4822598E1,1.6235002E3,5.9482935E3,1.1743917E3,4.4200168E2,2.1987935E2,4.5175696E2,5.2478135E3,4.171399E0,9.823925E0,1.626092E1,1.8854818E1,8.455637E1,6.4925433E2,1.02758156E2,2.0300198E3,1.24087E1,1.2762319E1,2.0609524E1,1.3776586E0,2.3481807E2,4.597785E1,3.1567879E1,1.00365305E1,7.11229E0,5.430384E0,9.733683E0,6.806109E0,2.7021058E0,1.2400256E1,2.714083E0,1.4079841E1],"tree_param":{"num_deleted":"0","num_feature":"24","num_nodes":"97","size_leaf_vector":"0"}},{"base_weights":[-1.5445636E-5,4.4414173E-3,-3.8733235E-1,-2.8514524E-3,2.7168787E-1,-5.601538E-1,3.905834E-2,-5.9496807E-3,5.9571064E-1,3.3348602E-1,-3.952216E-1,-2.6186645E-1,-7.792875E-1,2.9296154E-1,-3.7322575E-1,8.749914E-4,-3.725493E-1,6.386186E-1,-5.3256565E-1,5.2639127E-1,2.051328E-1,4.8849493E-1,-6.3692385E-1,3.253076E-1,-3.842569E-1,-8.393492E-1,3.8808453E-1,-5.2458003E-2,6.2874764E-1,-5.272071E-1,1.0066458E0,3.991398E-2,-4.962597E-2,-4.5296025E-1,1.3948405E-1,3.2724026E-1,8.2242155E-1,1.9459192E-1,-1.1902299E0,1.1448831E-1,6.342962E-1,-1.2087387E-2,5.5126977E-1,1.3238496E0,-1.0695385E-1,-9.47082E-1,4.095634E-1,-2.3371126E-1,1.2936646E0,-8.292692E-1,-1.9809783E-1,-9.448731E-1,-2.7357012E-1,-8.072271E-1,9.800416E-1,7.1399873E-1,-4.0268415E-1,-1.7514113E-1,8.677334E-1,-1.5713522E-1,-9.404213E-1,-7.917175E-2,5.7936355E-2,1.5374516E-1,-6.865587E-2,-9.8341495E-1,-3.9072984E-1,6.350875E-1,-5.95656E-1,-5.467051E-1,5.1881963E-1,2.3071012E-1,8.980593E-1,3.1890196E-1,-9.5714974E-1,7.034797E-1,-1.4033446E-1,-4.4956654E-1,2.343109E-1,6.763106E-1,1.9391064E-1,7.352586E-1,-8.2852024E-1,2.0167403E-1,-1.0843015E0,7.4432033E-1,-6.0277414E-1,5.4457927E-1,-6.951487E-1,1.5928652E0,1.9498874E-1,8.5039616E-1,-1.0451436E0,6.078081E-1,-3.500278E-1,2.2164345E-1,-9.916447E-1,-5.974611E-1,4.5176187E-1,1.4279968E0,2.7977273E-2,9.0396094E-1,-1.7182264E-1,4.7278693E-1,-8.97314E-1,4.022351E-1,-9.094379E-1,1.3218824E0,1.8644077E-1,-1.1346642E0,7.5578235E-2,4.653307E-1,-1.1354104E0],"categories":[],"categories_nodes":[],"categories_segments":[],"categories_sizes":[],"default_left":[true,true,true,true,true,true,true,true,true,true,true,true,true,true,true,true,true,true,true,true,true,true,true,true,true,true,true,true,true,true,false,true,true,true,true,true,true,false,false,true,true,true,true,false,true,true,true,true,true,true,true,true,true,false,true,true,true,true,true,true,true,false,false,false,false,false,false,false,false,false,false,false,false,false,false,false,false,false,false,false,false,false,false,false,false,false,false,false,false,false,false,false,false,false,false,false,false,false,false,false,false,false,false,false,false,false,false,false,false,false,false,false,false],"id":10,"left_children":[1,3,5,7,9,11,13,15,17,19,21,23,25,27,29,31,33,35,37,39,41,43,45,47,49,51,53,55,57,59,-1,61,63,65,67,69,71,-1,-1,73,75,77,79,-1,81,83,85,87,89,91,93,95,97,-1,99,101,103,105,107,109,111,-1,-1,-1,-1,-1,-1,-1,-1,-1,-1,-1,-1,-1,-1,-1,-1,-1,-1,-1,-1,-1,-1,-1,-1,-1,-1,-1,-1,-1,-1,-1,-1,-1,-1,-1,-1,-1,-1,-1,-1,-1,-1,-1,-1,-1,-1,-1,-1,-1,-1,-1,-1],"loss_changes":[3.7058132E1,4.1365425E1,1.8018337E1,3.8318626E1,2.3367897E1,1.1159527E1,7.5805235E0,5.1428333E1,5.4912376E0,1.2681168E1,1.0621492E1,5.5244017E0,7.317234E0,5.2210827E0,6.403819E0,3.9788418E1,1.5530724E1,5.623417E0,2.356584E0,9.071312E0,2.3449848E1,5.5796795E0,1.2831348E1,7.610833E0,5.024356E0,5.422432E0,4.727477E0,6.453885E0,4.524251E0,3.7551594E0,0E0,2.4433971E1,3.4064407E1,1.0341415E1,1.9234037E1,6.960295E0,2.6608086E0,0E0,0E0,9.927746E0,8.823601E0,2.0861181E1,5.241886E0,0E0,5.0504622E0,4.927866E0,3.6555047E0,3.756786E0,1.3640547E0,7.473174E0,5.780531E0,4.572998E0,4.1144695E0,0E0,1.7394471E0,1.4283438E0,7.528797E0,2.9296806E0,5.2334538E0,3.4217958E0,3.7786798E0,0E0,0E0,0E0,0E0,0E0,0E0,0E0,0E0,0E0,0E0,0E0,0E0,0E0,0E0,0E0,0E0,0E0,0E0,0E0,0E0,0E0,0E0,0E0,0E0,0E0,0E0,0E0,0E0,0E0,0E0,0E0,0E0,0E0,0E0,0E0,0E0,0E0,0E0,0E0,0E0,0E0,0E0,0E0,0E0,0E0,0E0,0E0,0E0,0E0,0E0,0E0,0E0],"parents":[2147483647,0,0,1,1,2,2,3,3,4,4,5,5,6,6,7,7,8,8,9,9,10,10,11,11,12,12,13,13,14,14,15,15,16,16,17,17,18,18,19,19,20,20,21,21,22,22,23,23,24,24,25,25,26,26,27,27,28,28,29,29,31,31,32,32,33,33,34,34,35,35,36,36,39,39,40,40,41,41,42,42,44,44,45,45,46,46,47,47,48,48,49,49,50,50,51,51,52,52,54,54,55,55,56,56,57,57,58,58,59,59,60,60],"right_children":[2,4,6,8,10,12,14,16,18,20,22,24,26,28,30,32,34,36,38,40,42,44,46,48,50,52,54,56,58,60,-1,62,64,66,68,70,72,-1,-1,74,76,78,80,-1,82,84,86,88,90,92,94,96,98,-1,100,102,104,106,108,110,112,-1,-1,-1,-1,-1,-1,-1,-1,-1,-1,-1,-1,-1,-1,-1,-1,-1,-1,-1,-1,-1,-1,-1,-1,-1,-1,-1,-1,-1,-1,-1,-1,-1,-1,-1,-1,-1,-1,-1,-1,-1,-1,-1,-1,-1,-1,-1,-1,-1,-1,-1,-1],"split_conditions":[1.5E0,5.045E2,1.08605E5,1.5E0,1.022E3,1.05506E5,7.05E1,4.905E2,1.447955E5,1.8539493E2,1.042795E5,2.0631075E1,2.5805E3,6.35E1,2.02422E5,2.7065025E1,1.061805E5,1.086045E5,8.5E1,1.03449E5,1.8689493E2,2.3856262E1,1.209E3,7.74E2,2.2175222E1,9.245E2,2.275E2,1.97577E1,8.595E2,1.188785E5,3.0199376E-1,2.1915127E1,7.5E0,4.25E1,1.099295E5,2.0429844E1,5E-1,5.837758E-2,-3.57069E-1,3.76E2,1.905E2,2.355E2,2.995E2,3.971549E-1,8.77E2,1.85E1,1.310145E5,3.065E2,1.5E0,1.8494183E1,2.285558E1,1.02293E5,7.9E1,-2.4216813E-1,8.35E1,2.7117043E1,1.087E5,1.08633E5,9E1,1.756742E1,1.7383984E1,-2.3751525E-2,1.7380908E-2,4.612355E-2,-2.0596761E-2,-2.9502448E-1,-1.1721896E-1,1.9052626E-1,-1.786968E-1,-1.6401154E-1,1.5564589E-1,6.921304E-2,2.694178E-1,9.567059E-2,-2.8714493E-1,2.1104392E-1,-4.210034E-2,-1.3486996E-1,7.029327E-2,2.0289318E-1,5.8173195E-2,2.2057758E-1,-2.4855608E-1,6.0502212E-2,-3.2529044E-1,2.232961E-1,-1.8083225E-1,1.6337378E-1,-2.0854463E-1,4.778596E-1,5.8496624E-2,2.5511885E-1,-3.1354308E-1,1.8234244E-1,-1.0500834E-1,6.6493034E-2,-2.9749343E-1,-1.7923833E-1,1.3552856E-1,4.2839906E-1,8.393182E-3,2.711883E-1,-5.1546793E-2,1.4183609E-1,-2.6919422E-1,1.20670535E-1,-2.7283138E-1,3.9656472E-1,5.593223E-2,-3.4039927E-1,2.267347E-2,1.3959922E-1,-3.4062314E-1],"split_indices":[14,20,5,7,21,11,9,21,11,15,11,10,0,16,5,17,5,5,9,5,15,17,20,20,17,20,21,10,0,5,0,10,13,20,5,17,14,0,0,21,8,21,21,0,20,9,5,20,7,17,17,5,16,0,9,17,5,11,16,17,17,0,0,0,0,0,0,0,0,0,0,0,0,0,0,0,0,0,0,0,0,0,0,0,0,0,0,0,0,0,0,0,0,0,0,0,0,0,0,0,0,0,0,0,0,0,0,0,0,0,0,0,0],"split_type":[0,0,0,0,0,0,0,0,0,0,0,0,0,0,0,0,0,0,0,0,0,0,0,0,0,0,0,0,0,0,0,0,0,0,0,0,0,0,0,0,0,0,0,0,0,0,0,0,0,0,0,0,0,0,0,0,0,0,0,0,0,0,0,0,0,0,0,0,0,0,0,0,0,0,0,0,0,0,0,0,0,0,0,0,0,0,0,0,0,0,0,0,0,0,0,0,0,0,0,0,0,0,0,0,0,0,0,0,0,0,0,0,0],"sum_hessian":[2.1465816E4,2.1222596E4,2.4322028E2,2.06598E4,5.627945E2,1.728488E2,7.037147E1,2.0554398E4,1.0540194E2,5.1552423E2,4.727031E1,7.413306E1,9.8715744E1,4.3729984E1,2.6641485E1,2.0179729E4,3.7467114E2,1.0195848E2,3.443457E0,2.0472969E2,3.1079453E2,9.93279E0,3.733752E1,1.2500993E1,6.1632065E1,9.415256E1,4.5631857E0,2.1971704E1,2.175828E1,2.452288E1,2.1186037E0,1.1381582E4,8.798146E3,3.239177E2,5.0753445E1,3.8877304E1,6.3081177E1,1.9697198E0,1.4737371E0,4.2926876E1,1.6180283E2,1.9155081E2,1.19243706E2,3.624584E0,6.308206E0,2.8874638E1,8.462882E0,8.40662E0,4.0943723E0,1.7158981E1,4.447308E1,7.878775E1,1.5364805E1,1.3909156E0,3.1722698E0,6.565242E0,1.5406464E1,5.0473614E0,1.6710918E1,1.3664934E1,1.0857946E1,1.4956228E3,9.885959E3,7.5221375E2,8.0459326E3,3.2456272E1,2.9146143E2,3.0397026E1,2.0356419E1,6.65678E0,3.2220524E1,7.6087136E0,5.547246E1,3.6640217E1,6.28666E0,1.4862108E2,1.3181744E1,6.87179E1,1.2283291E2,8.7673874E1,3.1569832E1,2.902007E0,3.406199E0,3.0309343E0,2.5843702E1,6.5587907E0,1.9040917E0,3.061952E0,5.3446684E0,2.8644865E0,1.2298859E0,1.6194139E0,1.5539568E1,6.5782833E0,3.78948E1,2.8930943E0,7.589466E1,1.0743623E1,4.621183E0,1.8173124E0,1.3549576E0,5.3890877E0,1.1761541E0,5.577939E0,9.828525E0,3.0787573E0,1.9686042E0,9.462783E0,7.248136E0,1.8823197E0,1.1782615E1,1.1537408E0,9.7042055E0],"tree_param":{"num_deleted":"0","num_feature":"24","num_nodes":"113","size_leaf_vector":"0"}},{"base_weights":[1.2875381E-5,-4.9110156E-2,3.0447604E-2,-8.403534E-1,-3.0036103E-2,7.147256E-2,-3.7640683E-2,-2.473589E-1,-9.5915323E-1,-2.0220613E-3,-1.3178661E-1,4.4370607E-2,2.3798181E-1,1.2481917E-1,-6.6845514E-2,-8.1029093E-1,1.6468825E-3,-9.6487635E-1,-3.3778835E-2,-1.4419692E-2,2.439185E-1,-4.7087606E-2,-2.944892E-1,6.525874E-2,-2.7475962E-1,4.5553458E-1,1.1395002E-1,1.5844913E-1,-3.3680642E-1,-1.6616808E-1,-3.458665E-2,-5.8570724E-2,-8.8880837E-1,4.3629643E-1,-3.2507414E-1,-1.0032997E0,-7.697636E-1,4.9820313E-1,-1.9496009E-2,-3.8350224E-1,3.327872E-1,-7.881081E-2,4.7872445E-1,-3.9749393E-1,-1.3719805E-2,1.739606E-1,2.2385534E-2,-6.389674E-1,-1.7494802E-1,1.8120298E-1,7.138095E-1,2.7450776E-1,-8.308582E-2,2.932355E-1,3.6121733E-2,-4.716312E-1,9.576696E-1,3.0002618E-1,-2.6160762E-1,1.4111203E-1,-5.96049E-2,7.829034E-1,-8.237135E-1,8.96591E-1,-6.3216966E-1,4.4713792E-1,-8.2702434E-1,2.0716955E-1,9.6198946E-1,1.0408694E-1,-3.483636E-2,2.2038922E-1,-7.319753E-1,1.6680822E-1,8.4456784E-1,3.620977E-1,-1.1210571E-1,1.0018789E0,2.5857106E-1,-6.588086E-1,-2.9764915E-1,2.2550184E-1,-8.225904E-1,9.756765E-1,1.3621487E-1,2.7133195E-2,-9.2678154E-1,-8.5316145E-1,-1.1655608E-2,5.734617E-1,-3.6632508E-1,1.0048231E-1,8.848799E-1,8.435659E-1,1.6729893E-1,6.607779E-1,1.9677877E-1,2.471715E-2,-5.069929E-1,-2.5643158E-1,3.440885E-1,-1.06244355E-1,1.7734145E-1,-1.0272537E0,-2.8332016E-1,1.3069134E0,1.5160042E-1,8.021E-1,-1.7241453E-1,-1.3216116E-1,-6.8121356E-1,9.6644473E-1,1.05950974E-1,-5.4833047E-2,-8.009619E-1],"categories":[],"categories_nodes":[],"categories_segments":[],"categories_sizes":[],"default_left":[true,true,true,true,true,true,true,true,true,true,true,true,true,true,true,true,true,true,false,true,true,true,true,true,true,true,true,true,true,true,true,false,false,true,true,false,true,true,true,true,true,true,true,true,true,true,true,true,true,true,true,true,true,true,true,true,true,true,true,true,true,false,false,false,false,false,false,false,false,false,false,false,false,false,false,false,false,false,false,false,false,false,false,false,false,false,false,false,false,false,false,false,false,false,false,false,false,false,false,false,false,false,false,false,false,false,false,false,false,false,false,false,false,false,false],"id":11,"left_children":[1,3,5,7,9,11,13,15,17,19,21,23,25,27,29,31,33,35,-1,37,39,41,43,45,47,49,51,53,55,57,59,-1,-1,61,63,-1,65,67,69,71,73,75,77,79,81,83,85,87,89,91,93,95,97,99,101,103,105,107,109,111,113,-1,-1,-1,-1,-1,-1,-1,-1,-1,-1,-1,-1,-1,-1,-1,-1,-1,-1,-1,-1,-1,-1,-1,-1,-1,-1,-1,-1,-1,-1,-1,-1,-1,-1,-1,-1,-1,-1,-1,-1,-1,-1,-1,-1,-1,-1,-1,-1,-1,-1,-1,-1,-1,-1],"loss_changes":[3.1990446E1,1.2351419E2,3.6907997E1,1.3334091E1,2.2786161E1,3.7196075E1,2.3580372E1,4.697179E0,8.155365E-1,1.9118925E1,2.3768356E1,4.7292995E1,3.1084099E1,1.181114E1,1.3488987E1,5.544586E-1,3.5819075E0,4.2063904E-1,0E0,1.5543293E1,1.6906122E1,1.8988829E1,1.7075909E1,3.1020674E1,1.5732891E1,2.9533455E1,2.33142E1,1.1640247E1,9.483231E0,4.6009537E1,1.3988777E1,0E0,0E0,5.371232E0,5.9700336E0,0E0,2.4934177E0,7.706337E0,1.1211159E1,8.115672E0,2.2294523E1,1.5782564E1,7.2026024E0,1.1076996E1,3.1060345E1,5.684354E1,2.1543987E1,1.2537025E1,4.940724E1,1.1518766E1,1.51262665E1,1.205699E1,1.5154045E1,9.481586E0,7.489263E0,4.6827784E0,1.2689524E0,4.1859108E1,4.648223E1,1.1410439E1,9.807568E0,0E0,0E0,0E0,0E0,0E0,0E0,0E0,0E0,0E0,0E0,0E0,0E0,0E0,0E0,0E0,0E0,0E0,0E0,0E0,0E0,0E0,0E0,0E0,0E0,0E0,0E0,0E0,0E0,0E0,0E0,0E0,0E0,0E0,0E0,0E0,0E0,0E0,0E0,0E0,0E0,0E0,0E0,0E0,0E0,0E0,0E0,0E0,0E0,0E0,0E0,0E0,0E0,0E0,0E0],"parents":[2147483647,0,0,1,1,2,2,3,3,4,4,5,5,6,6,7,7,8,8,9,9,10,10,11,11,12,12,13,13,14,14,15,15,16,16,17,17,19,19,20,20,21,21,22,22,23,23,24,24,25,25,26,26,27,27,28,28,29,29,30,30,33,33,34,34,36,36,37,37,38,38,39,39,40,40,41,41,42,42,43,43,44,44,45,45,46,46,47,47,48,48,49,49,50,50,51,51,52,52,53,53,54,54,55,55,56,56,57,57,58,58,59,59,60,60],"right_children":[2,4,6,8,10,12,14,16,18,20,22,24,26,28,30,32,34,36,-1,38,40,42,44,46,48,50,52,54,56,58,60,-1,-1,62,64,-1,66,68,70,72,74,76,78,80,82,84,86,88,90,92,94,96,98,100,102,104,106,108,110,112,114,-1,-1,-1,-1,-1,-1,-1,-1,-1,-1,-1,-1,-1,-1,-1,-1,-1,-1,-1,-1,-1,-1,-1,-1,-1,-1,-1,-1,-1,-1,-1,-1,-1,-1,-1,-1,-1,-1,-1,-1,-1,-1,-1,-1,-1,-1,-1,-1,-1,-1,-1,-1,-1,-1],"split_conditions":[4.25E1,7.5E0,1.87E2,5.95E1,4E0,1.8539493E2,1.029665E5,1.95E1,3.694593E1,1.06388E5,6.55E1,2.855E2,1.375E2,5E-1,2.2558521E1,1.75E1,1.5E0,3.65E1,-1.0133651E-2,1.9273102E1,3E1,2.85E1,1.155E2,3.55E1,7.5E0,9.988422E1,1.051485E5,6.25E1,1.042685E5,7.5E0,1.75E1,-1.7571218E-2,-2.666425E-1,1.05411E5,3.25E1,-3.0098993E-1,2.0250513E1,5.2E1,5E-1,1.35E1,6.85E1,2.5E0,2.4720055E1,1.82E2,2.715E2,7.5E0,1.5E0,1.865E2,7.5E0,7.963239E0,1.0555E3,7.5E0,6.705E2,1.0179E5,1.02351E5,5E-1,4.75E1,1.035E2,1.175E2,7.5E0,8.825E2,2.3487101E-1,-2.4711405E-1,2.689773E-1,-1.8965091E-1,1.3414139E-1,-2.4810731E-1,6.2150866E-2,2.8859684E-1,3.1226084E-2,-1.0450908E-2,6.6116765E-2,-2.195926E-1,5.004247E-2,2.5337037E-1,1.08629316E-1,-3.3631716E-2,3.0056366E-1,7.757132E-2,-1.9764258E-1,-8.929475E-2,6.765056E-2,-2.4677713E-1,2.9270294E-1,4.086446E-2,8.139959E-3,-2.7803448E-1,-2.5594845E-1,-3.4966825E-3,1.7203853E-1,-1.0989753E-1,3.0144693E-2,2.6546398E-1,2.530698E-1,5.018968E-2,1.9823338E-1,5.9033636E-2,7.415145E-3,-1.5209787E-1,-7.692948E-2,1.0322655E-1,-3.1873308E-2,5.3202435E-2,-3.0817613E-1,-8.499605E-2,3.9207402E-1,4.548013E-2,2.4063002E-1,-5.172436E-2,-3.9648347E-2,-2.0436408E-1,2.8993344E-1,3.1785294E-2,-1.6449915E-2,-2.4028859E-1],"split_indices":[20,13,8,21,18,8,5,20,17,11,21,21,20,1,10,4,3,20,0,17,2,6,21,21,13,21,11,21,11,13,21,0,0,5,21,0,10,2,7,20,21,21,10,15,21,13,14,20,19,12,21,13,21,5,5,7,16,21,20,13,21,0,0,0,0,0,0,0,0,0,0,0,0,0,0,0,0,0,0,0,0,0,0,0,0,0,0,0,0,0,0,0,0,0,0,0,0,0,0,0,0,0,0,0,0,0,0,0,0,0,0,0,0,0,0],"split_type":[0,0,0,0,0,0,0,0,0,0,0,0,0,0,0,0,0,0,0,0,0,0,0,0,0,0,0,0,0,0,0,0,0,0,0,0,0,0,0,0,0,0,0,0,0,0,0,0,0,0,0,0,0,0,0,0,0,0,0,0,0,0,0,0,0,0,0,0,0,0,0,0,0,0,0,0,0,0,0,0,0,0,0,0,0,0,0,0,0,0,0,0,0,0,0,0,0,0,0,0,0,0,0,0,0,0,0,0,0,0,0,0,0,0,0],"sum_hessian":[2.139563E4,8.1846387E3,1.3210991E4,1.9164462E2,7.992994E3,8.243824E3,4.967167E3,3.2500267E1,1.5914436E2,6.2682373E3,1.7247568E3,7.090932E3,1.1528922E3,7.563713E2,4.210796E3,9.275918E0,2.3224348E1,1.5812373E2,1.0206275E0,5.9683213E3,2.9991605E2,1.1351267E3,5.8963007E2,6.656066E3,4.3486615E2,4.1765292E2,7.352393E2,7.0562256E2,5.0748672E1,1.0313126E3,3.1794832E3,1.0423632E0,8.233555E0,9.822165E0,1.3402183E1,1.2864723E2,2.94765E1,5.757004E1,5.9107515E3,3.679869E1,2.6311737E2,1.071341E3,6.3785854E1,4.3106958E2,1.5856047E2,1.8818124E3,4.774254E3,9.237874E1,3.424874E2,2.0335603E2,2.1429689E2,4.0490387E2,3.3033545E2,3.3505035E2,3.705722E2,4.653729E1,4.211383E0,1.7488869E2,8.564239E2,3.957266E2,2.7837566E3,8.000123E0,1.8220423E0,2.3066099E0,1.1095572E1,1.0186846E0,2.8457815E1,3.6261833E1,2.1308208E1,6.5204504E2,5.2587065E3,1.3599243E1,2.3199448E1,1.9968283E2,6.343453E1,7.45279E1,9.96813E2,1.7840448E1,4.5945404E1,1.1762418E2,3.134454E2,1.2292647E2,3.5634007E1,8.349691E1,1.7983154E3,4.751459E3,2.2795021E1,6.859658E1,2.378216E1,6.933716E1,2.7315024E2,1.834543E2,1.9901737E1,1.7274016E2,4.155673E1,6.657279E1,3.383311E2,2.6411145E2,6.622397E1,2.8030258E1,3.070201E2,1.8466043E2,1.8591179E2,1.0652217E1,3.588507E1,2.5047948E0,1.7065881E0,8.444705E1,9.0441635E1,6.5551544E2,2.0090846E2,1.5087708E1,3.806389E2,2.7670203E3,1.6736372E1],"tree_param":{"num_deleted":"0","num_feature":"24","num_nodes":"115","size_leaf_vector":"0"}},{"base_weights":[-9.8528624E-5,-2.3672825E-3,4.9556762E-1,6.483333E-2,-1.862383E-2,-1.218124E0,5.3708845E-1,1.02828E0,4.175065E-2,-3.535876E-2,6.799496E-2,6.404833E-1,1.122535E-1,1.0349084E0,2.3772213E-1,5.6105785E-2,-4.9119052E-1,3.7180535E-2,-5.9393395E-2,6.3124627E-1,5.6003682E-2,-6.011373E-1,6.9215035E-1,-6.8930846E-1,5.029296E-1,1.7669236E-2,1.8414786E-1,-1.293592E-1,-7.984192E-1,4.3360766E-2,-7.011904E-1,3.6643362E-1,-6.321731E-2,2.1060714E-1,9.1671467E-1,4.1813616E-2,3.7938553E-1,4.0664E-1,-1.245862E0,7.2120047E-1,-5.6966156E-1,3.966241E-1,-1.0204893E0,8.2259566E-1,-6.8728966E-1,5.1528115E-2,-1.8130071E-1,2.1194662E-1,-1.00342E0,7.9449356E-1,-2.5835928E-1,-8.9183986E-1,1.8575351E-1,-2.2122963E-1,5.5563156E-2,-1.0630608E0,4.0301958E-1,5.181392E-1,-3.9773816E-1,-5.6492884E-2,-3.6735034E-1,-2.4014454E-1,4.8642516E-1,3.201018E-1,1.1389914E0,-5.136507E-2,9.510333E-2,5.4487985E-1,-3.8087603E-1,-2.0258284E-1,7.6502776E-1,1.5007972E0,2.5043786E-1,-9.609645E-1,-7.255766E-2],"categories":[],"categories_nodes":[],"categories_segments":[],"categories_sizes":[],"default_left":[true,true,true,true,true,false,true,true,true,true,true,true,true,false,false,true,true,true,true,true,true,true,true,true,true,true,true,true,true,true,true,true,true,true,true,true,true,false,false,true,false,false,false,true,true,false,false,false,false,false,false,false,false,false,false,false,false,false,false,false,false,false,false,false,false,false,false,false,false,false,false,false,false,false,false],"id":12,"left_children":[1,3,5,7,9,-1,11,13,15,17,19,21,23,-1,-1,25,27,29,31,33,35,37,39,41,43,45,47,49,51,53,55,57,59,61,63,65,67,-1,-1,69,-1,-1,-1,71,73,-1,-1,-1,-1,-1,-1,-1,-1,-1,-1,-1,-1,-1,-1,-1,-1,-1,-1,-1,-1,-1,-1,-1,-1,-1,-1,-1,-1,-1,-1],"loss_changes":[2.3836153E1,2.3051523E1,7.526079E0,9.136365E1,2.463107E1,0E0,4.100458E0,2.5769806E-1,3.0744686E1,2.4829063E1,1.8548004E1,5.3031864E0,6.5486393E0,0E0,0E0,1.9243061E1,1.1615141E1,1.620536E1,1.7440506E1,6.682379E0,1.2351718E1,2.8318067E0,3.1088104E0,2.8904417E0,5.851428E0,2.0279842E1,3.0016306E1,6.116355E0,5.3894005E0,1.1364466E1,1.2208218E1,1.1259489E1,2.1661846E1,3.1561499E0,4.1191864E0,1.2830641E1,1.4446346E1,0E0,0E0,3.0857391E0,0E0,0E0,0E0,4.0505586E0,5.167912E-1,0E0,0E0,0E0,0E0,0E0,0E0,0E0,0E0,0E0,0E0,0E0,0E0,0E0,0E0,0E0,0E0,0E0,0E0,0E0,0E0,0E0,0E0,0E0,0E0,0E0,0E0,0E0,0E0,0E0,0E0],"parents":[2147483647,0,0,1,1,2,2,3,3,4,4,6,6,7,7,8,8,9,9,10,10,11,11,12,12,15,15,16,16,17,17,18,18,19,19,20,20,21,21,22,22,23,23,24,24,25,25,26,26,27,27,28,28,29,29,30,30,31,31,32,32,33,33,34,34,35,35,36,36,39,39,43,43,44,44],"right_children":[2,4,6,8,10,-1,12,14,16,18,20,22,24,-1,-1,26,28,30,32,34,36,38,40,42,44,46,48,50,52,54,56,58,60,62,64,66,68,-1,-1,70,-1,-1,-1,72,74,-1,-1,-1,-1,-1,-1,-1,-1,-1,-1,-1,-1,-1,-1,-1,-1,-1,-1,-1,-1,-1,-1,-1,-1,-1,-1,-1,-1,-1,-1],"split_conditions":[1.2105E3,7.463239E0,1.019475E5,7.5E0,1.92E2,-3.654372E-1,1.5E0,3.632991E1,1.645E2,1.034205E5,4E0,1.7665981E1,1.04902E5,3.1047255E-1,7.1316645E-2,8.25E1,1.03913E5,1.086025E5,1.8060234E1,1.5105E3,2.505E2,8.825E2,2.022735E5,2.41E2,1.38E3,3.35E1,3.5E0,4E0,1E0,2.5E0,2.185E2,1.087265E5,7.645E2,3.2E1,1.25E1,1.043345E5,3.05E1,1.21992E-1,-3.737586E-1,1.5E0,-1.7089847E-1,1.1898723E-1,-3.061468E-1,1.086275E5,2.3457905E1,1.5458435E-2,-5.4390218E-2,6.358399E-2,-3.0102602E-1,2.3834808E-1,-7.750779E-2,-2.6755196E-1,5.5726055E-2,-6.636889E-2,1.6668947E-2,-3.1891823E-1,1.20905876E-1,1.5544176E-1,-1.1932145E-1,-1.6947865E-2,-1.1020511E-1,-7.204337E-2,1.4592755E-1,9.603054E-2,3.4169742E-1,-1.5409522E-2,2.8531E-2,1.6346397E-1,-1.1426281E-1,-6.077485E-2,2.2950834E-1,4.5023915E-1,7.513136E-2,-2.8828937E-1,-2.1767298E-2],"split_indices":[20,12,11,13,15,0,14,17,20,5,16,17,5,0,0,20,5,11,10,0,20,0,11,0,21,21,3,9,3,6,4,11,21,20,20,11,4,0,0,9,0,0,0,5,10,0,0,0,0,0,0,0,0,0,0,0,0,0,0,0,0,0,0,0,0,0,0,0,0,0,0,0,0,0,0],"split_type":[0,0,0,0,0,0,0,0,0,0,0,0,0,0,0,0,0,0,0,0,0,0,0,0,0,0,0,0,0,0,0,0,0,0,0,0,0,0,0,0,0,0,0,0,0,0,0,0,0,0,0,0,0,0,0,0,0,0,0,0,0,0,0,0,0,0,0,0,0,0,0,0,0,0,0],"sum_hessian":[2.119423E4,2.1098652E4,9.557714E1,4.1092065E3,1.6989447E4,1.5905985E0,9.398654E1,9.512771E1,4.0140786E3,1.4239028E4,2.7504182E3,7.518152E1,1.8805025E1,9.4030235E1,1.0974674E0,3.909664E3,1.0441475E2,3.543572E3,1.0695456E4,5.62576E1,2.6941606E3,2.5786512E0,7.260287E1,5.9116063E0,1.2893419E1,3.007877E3,9.017871E2,4.8599216E1,5.581553E1,3.5150916E3,2.8480358E1,9.4346245E1,1.060111E4,2.3446629E1,3.281097E1,2.5819917E3,1.1216906E2,1.1501378E0,1.4285134E0,7.138778E1,1.2150872E0,1.3353682E0,4.576238E0,1.0407162E1,2.486258E0,2.571093E3,4.3678394E2,8.819635E2,1.9823599E1,5.3225007E0,4.327672E1,5.1062355E1,4.7531743E0,1.5420735E2,3.3608843E3,2.1478664E1,7.0016937E0,7.8987404E1,1.5358845E1,1.0372948E4,2.2816176E2,8.949831E0,1.4496797E1,9.568438E0,2.3242533E1,9.394212E2,1.6425704E3,9.2349625E1,1.9819435E1,3.0693927E0,6.831838E1,4.019564E0,6.3875976E0,1.3306403E0,1.1556178E0],"tree_param":{"num_deleted":"0","num_feature":"24","num_nodes":"75","size_leaf_vector":"0"}},{"base_weights":[1.1196838E-4,-2.2030717E-1,3.977365E-3,2.7950728E-1,-3.116165E-1,1.7098432E-2,-5.9588622E-2,1.352048E0,1.7654009E-1,-1.3859485E-1,-5.7528967E-1,4.3345712E-2,-1.9602804E-2,-5.662437E-1,-4.4042576E-2,2.3058845E-1,1.8821315E0,-1.9807397E-1,4.7463116E-1,1.031693E-2,-4.5540503E-1,1.3471521E-1,-6.549721E-1,-7.328088E-2,5.8085203E-2,1.3709746E-1,-3.3922955E-2,-1.9518356E-1,-7.8689504E-1,2.771758E-3,-1.0959943E-1,-3.769497E-1,5.035741E-1,8.564166E-1,-2.0584214E-1,-7.2837675E-1,8.5961044E-2,-6.031633E-1,1.3005683E-1,1.6722034E0,-2.1188174E-1,8.5002637E-1,-7.029453E-1,3.668909E-1,-9.685082E-2,1.696391E-2,1.22290164E-1,-4.768199E-1,1.952895E-1,1.01937726E-1,-4.8068937E-2,5.685921E-1,-3.9266777E-1,-5.473286E-1,-1.4769751E0,-5.8025654E-2,7.383107E-2,-1.9782376E-3,-1.586195E-1,-6.224679E-1,4.1114774E-1,1.1021569E0,-7.7226996E-1,1.167944E0,-1.4424585E-1,-5.6300324E-1,4.6098205E-1,-1.0241464E0,1.4197749E-1,8.0170786E-1,-1.2572608E-2,1.08265415E-1,-6.9181114E-1,7.111371E-1,-4.7207266E-1,-5.323184E-1,4.0715733E-1,1.3805566E0,1.7633168E-1,-7.6790553E-1,1.21901885E-1,-3.2307246E-1,4.9755952E-1,-2.1591759E-1,-3.525262E-2,4.8633352E-2,-1.7625086E-1,2.691452E-2,1.5657999E-1,-1.1513494E0,-3.0097067E-1,-2.1969405E-1,2.553109E-1,4.0908346E-1,-3.3649224E-1,-2.1049464E-2,-2.8785282E-1,-4.374562E-1,9.453924E-1,1.06040284E-1,-7.3360825E-1,-6.456035E-1,2.1348286E-1,-1.7319796E0,-8.628626E-1,1.5326725E-1,-1.073496E-1,8.968262E-3,2.2001062E-1,-7.817522E-2,3.1266502E-1,2.900691E-1,-1.911666E-1],"categories":[],"categories_nodes":[],"categories_segments":[],"categories_sizes":[],"default_left":[true,true,true,true,true,true,true,true,true,true,true,true,true,true,true,false,false,true,true,true,true,true,true,true,true,true,true,true,true,true,true,true,true,true,true,true,true,true,true,false,true,true,true,true,true,true,true,true,true,true,true,true,true,true,true,true,true,true,true,false,false,false,false,false,false,false,false,false,false,false,false,false,false,false,false,false,false,false,false,false,false,false,false,false,false,false,false,false,false,false,false,false,false,false,false,false,false,false,false,false,false,false,false,false,false,false,false,false,false,false,false,false,false],"id":13,"left_children":[1,3,5,7,9,11,13,15,17,19,21,23,25,27,29,-1,-1,31,33,35,37,39,41,43,45,47,49,51,53,55,57,59,61,63,65,67,69,71,73,-1,75,77,79,81,83,85,87,89,91,93,95,97,99,101,103,105,107,109,111,-1,-1,-1,-1,-1,-1,-1,-1,-1,-1,-1,-1,-1,-1,-1,-1,-1,-1,-1,-1,-1,-1,-1,-1,-1,-1,-1,-1,-1,-1,-1,-1,-1,-1,-1,-1,-1,-1,-1,-1,-1,-1,-1,-1,-1,-1,-1,-1,-1,-1,-1,-1,-1,-1],"loss_changes":[1.7987036E1,1.6691952E1,1.7305542E1,6.026223E0,1.397669E1,1.65682E1,2.7937328E1,2.4306765E0,6.002396E0,8.8434105E0,6.9767227E0,1.7241856E1,1.6097979E1,8.49263E0,1.057452E1,0E0,0E0,3.2209706E0,7.907433E0,7.2387714E0,5.262555E0,7.343318E0,8.513744E0,1.1712963E1,2.3503647E1,2.1553877E1,1.2635681E1,6.363634E0,1.0085091E1,8.692512E0,7.5724506E0,4.090316E0,4.92497E0,6.1714993E0,2.998835E0,3.2435312E0,8.289083E0,3.1038647E0,4.848926E0,0E0,2.5157952E0,1.1289208E0,5.816395E0,5.3371596E0,7.8337727E0,3.32243E1,1.1362919E1,5.857252E0,1.3740923E1,8.3639305E1,3.856246E1,3.738846E0,5.6781545E0,3.9137611E0,1.0725021E0,1.1317297E1,8.794252E0,1.0818495E1,1.44575615E1,0E0,0E0,0E0,0E0,0E0,0E0,0E0,0E0,0E0,0E0,0E0,0E0,0E0,0E0,0E0,0E0,0E0,0E0,0E0,0E0,0E0,0E0,0E0,0E0,0E0,0E0,0E0,0E0,0E0,0E0,0E0,0E0,0E0,0E0,0E0,0E0,0E0,0E0,0E0,0E0,0E0,0E0,0E0,0E0,0E0,0E0,0E0,0E0,0E0,0E0,0E0,0E0,0E0,0E0],"parents":[2147483647,0,0,1,1,2,2,3,3,4,4,5,5,6,6,7,7,8,8,9,9,10,10,11,11,12,12,13,13,14,14,17,17,18,18,19,19,20,20,21,21,22,22,23,23,24,24,25,25,26,26,27,27,28,28,29,29,30,30,31,31,32,32,33,33,34,34,35,35,36,36,37,37,38,38,40,40,41,41,42,42,43,43,44,44,45,45,46,46,47,47,48,48,49,49,50,50,51,51,52,52,53,53,54,54,55,55,56,56,57,57,58,58],"right_children":[2,4,6,8,10,12,14,16,18,20,22,24,26,28,30,-1,-1,32,34,36,38,40,42,44,46,48,50,52,54,56,58,60,62,64,66,68,70,72,74,-1,76,78,80,82,84,86,88,90,92,94,96,98,100,102,104,106,108,110,112,-1,-1,-1,-1,-1,-1,-1,-1,-1,-1,-1,-1,-1,-1,-1,-1,-1,-1,-1,-1,-1,-1,-1,-1,-1,-1,-1,-1,-1,-1,-1,-1,-1,-1,-1,-1,-1,-1,-1,-1,-1,-1,-1,-1,-1,-1,-1,-1,-1,-1,-1,-1,-1,-1],"split_conditions":[2.5E0,3.615E2,1.92E2,2.7E1,2.55E1,2.706776E1,4E0,1.89E2,1.75E2,4E0,2.1741272E1,5E-1,1.05E1,2.2383299E1,4E1,6.917654E-2,5.6463945E-1,2.498015E1,4.35E1,7.1E2,2.9196442E1,5.125E2,1.9192333E1,6E0,1.87E2,2.7315536E1,7.5E0,-5E-1,3.35E1,2.7322382E1,1.041485E5,2.7E1,1.05E1,6.6E1,3.32E2,1.865E2,1.3E1,5E-1,2.5385E3,5.0166106E-1,1.89E2,6.315E2,1.89E2,-5E-1,5.15E1,1.8539493E2,2.85E1,1.7E1,7.5E0,1.205E2,1.355E2,9.195E2,3.4E1,2.6245E3,1.535E2,2.1819302E1,1.045895E5,1.035285E5,5.5E0,-1.8674037E-1,1.23344325E-1,3.3064708E-1,-2.31681E-1,3.503832E-1,-4.3273754E-2,-1.6890098E-1,1.3829462E-1,-3.0724394E-1,4.259325E-2,2.4051237E-1,-3.7717826E-3,3.2479625E-2,-2.0754336E-1,2.1334115E-1,-1.416218E-1,-1.5969554E-1,1.221472E-1,4.14167E-1,5.2899506E-2,-2.3037167E-1,3.6570568E-2,-9.692174E-2,1.4926787E-1,-6.477528E-2,-1.0575786E-2,1.4590006E-2,-5.287526E-2,8.074356E-3,4.6974E-2,-3.4540483E-1,-9.02912E-2,-6.5908216E-2,7.659327E-2,1.2272504E-1,-1.0094768E-1,-6.3148397E-3,-8.635585E-2,-1.3123687E-1,2.8361773E-1,3.1812087E-2,-2.2008248E-1,-1.9368105E-1,6.404486E-2,-5.195939E-1,-2.588588E-1,4.5980178E-2,-3.220488E-2,2.6904787E-3,6.600319E-2,-2.3452567E-2,9.379951E-2,8.702073E-2,-5.734998E-2],"split_indices":[20,0,8,0,21,17,9,15,0,18,10,14,21,10,16,0,0,10,16,0,10,0,17,21,15,17,13,23,20,17,5,9,12,21,0,8,16,14,0,0,15,0,8,23,21,15,20,16,20,21,20,0,16,0,20,17,11,5,21,0,0,0,0,0,0,0,0,0,0,0,0,0,0,0,0,0,0,0,0,0,0,0,0,0,0,0,0,0,0,0,0,0,0,0,0,0,0,0,0,0,0,0,0,0,0,0,0,0,0,0,0,0,0],"split_type":[0,0,0,0,0,0,0,0,0,0,0,0,0,0,0,0,0,0,0,0,0,0,0,0,0,0,0,0,0,0,0,0,0,0,0,0,0,0,0,0,0,0,0,0,0,0,0,0,0,0,0,0,0,0,0,0,0,0,0,0,0,0,0,0,0,0,0,0,0,0,0,0,0,0,0,0,0,0,0,0,0,0,0,0,0,0,0,0,0,0,0,0,0,0,0,0,0,0,0,0,0,0,0,0,0,0,0,0,0,0,0,0,0],"sum_hessian":[2.1109334E4,3.6284045E2,2.0746494E4,5.572864E1,3.0711182E2,1.7197398E4,3.5490957E3,3.8188949E0,5.1909744E1,1.8635304E2,1.2075877E2,1.0026593E4,7.170806E3,1.0460281E2,3.4444927E3,1.6863047E0,2.13259E0,2.3151077E1,2.8758667E1,1.2742589E2,5.892716E1,1.2115324E1,1.0864345E2,1.1245547E3,8.902038E3,5.997193E2,6.5710864E3,3.970953E1,6.489328E1,2.0100605E3,1.4344323E3,1.8816763E1,4.3343153E0,1.825691E1,1.0501758E1,1.1035084E1,1.1639081E2,4.7028034E1,1.1899125E1,1.5251583E0,1.0590166E1,2.8396685E0,1.0580378E2,5.6415806E1,1.0681388E3,5.4272905E3,3.4747478E3,5.1301556E1,5.484177E2,6.190837E2,5.952003E3,7.7719855E0,3.1937546E1,4.9501575E1,1.5391705E1,1.0833467E3,9.267138E2,4.4922372E2,9.8520856E2,1.4507397E1,4.3093657E0,3.0428486E0,1.2914667E0,1.379505E1,4.4618616E0,6.9401846E0,3.5615728E0,8.104318E0,2.930766E0,1.32205515E1,1.0317025E2,5.1861486E0,4.1841885E1,5.963276E0,5.935849E0,7.0703764E0,3.5197895E0,1.0016465E0,1.838022E0,9.814359E1,7.660188E0,8.748589E0,4.7667217E1,3.6333057E2,7.048083E2,4.6636323E3,7.6365826E2,9.193634E2,2.5553843E3,9.461475E0,4.184008E1,6.896164E1,4.7945612E2,3.640867E2,2.5499701E2,5.350215E3,6.017883E2,2.0738575E0,5.698128E0,1.3248045E1,1.86895E1,4.3972965E1,5.5286117E0,9.589471E0,5.8022346E0,2.0463367E2,8.78713E2,6.426281E2,2.8408566E2,3.622495E2,8.697421E1,6.609685E1,9.191117E2],"tree_param":{"num_deleted":"0","num_feature":"24","num_nodes":"113","size_leaf_vector":"0"}},{"base_weights":[-1.02082895E-5,-7.014583E-3,1.6301887E-1,-7.326181E-2,9.539388E-3,2.7487925E-1,-2.6460066E-2,1.4836138E-1,-9.969181E-2,-1.2940644E-1,2.1790417E-2,4.8451257E-1,1.6233623E-1,-3.582062E-1,8.906087E-2,5.625465E-1,-2.1277487E-1,-5.2190814E-2,-4.4083136E-1,-5.190514E-1,2.0780212E-1,3.6305584E-2,-2.6441038E-1,5.506344E-1,-2.657058E-1,7.0075977E-1,9.920102E-2,-4.49794E-2,-5.660903E-1,1.5573852E-1,-4.710493E-1,-2.2474943E-1,7.454298E-1,-6.5188044E-1,2.1515106E-1,-7.814032E-2,2.5992352E-1,-7.3633873E-1,-7.1317434E-2,1.6715768E-1,-6.969068E-1,7.1402967E-1,-3.3552624E-2,1.9594053E-2,2.799864E-1,-3.01339E-3,-4.662584E-1,1.8356453E-1,6.6751105E-1,-4.969612E-1,8.4291655E-1,4.3795446E-1,1.1813754E0,8.8399535E-1,6.7046314E-2,-6.618242E-1,2.4755587E-1,-7.2276443E-1,-2.9493365E-2,-1.6075978E-1,3.314785E-1,-6.216769E-1,5.445969E-1,-9.0778685E-1,1.6768135E-2,7.9903966E-1,-4.601654E-1,5.3035355E-1,-7.430077E-1,-5.3793736E-2,6.8640774E-1,-6.1715078E-2,-3.6740094E-1,8.479886E-3,5.486516E-1,-9.1969E-1,-2.6055673E-1,5.1056665E-1,-2.4997118E-1,-2.3901778E-1,4.95529E-1,-5.0936097E-1,-8.793787E-1,8.122567E-1,4.9922295E-2,-2.4912435E-1,2.5807485E-1,2.1085143E-1,1.1619586E-2,-2.4255691E-1,5.195415E-1,5.922516E-1,-1.460679E-1,-2.4737221E-1,-5.9484273E-1,8.437403E-1,-1.2392384E0,8.1653535E-1,3.6462092E-1,-7.2888076E-1,5.132086E-1,1.0745707E0,2.1538983E-1,3.2748047E-2,1.1110067E0,1.2594635E0,1.6002373E-1,-1.3019429E-1,1.0769204E0,2.6806045E-1,-2.737974E-2,9.380332E-1,-9.7533023E-1,4.478776E-1,-6.2101334E-1,-9.2569894E-1,-7.360755E-2,-4.548049E-1,4.744836E-1,8.800377E-1,-3.7755635E-1,4.125549E-2,6.164183E-1,7.1787375E-1,-7.373429E-1,-2.4924316E-1,1.0324836E0],"categories":[],"categories_nodes":[],"categories_segments":[],"categories_sizes":[],"default_left":[true,true,true,true,true,true,true,true,true,true,true,true,true,true,true,true,true,true,true,true,true,true,true,true,true,true,true,true,true,true,true,true,true,true,true,true,true,true,true,true,true,true,true,true,true,true,true,true,true,true,true,true,true,true,true,true,true,true,true,true,true,true,true,false,false,false,false,false,false,false,false,false,false,false,false,false,false,false,false,false,false,false,false,false,false,false,false,false,false,false,false,false,false,false,false,false,false,false,false,false,false,false,false,false,false,false,false,false,false,false,false,false,false,false,false,false,false,false,false,false,false,false,false,false,false,false,false],"id":14,"left_children":[1,3,5,7,9,11,13,15,17,19,21,23,25,27,29,31,33,35,37,39,41,43,45,47,49,51,53,55,57,59,61,63,65,67,69,71,73,75,77,79,81,83,85,87,89,91,93,95,97,99,101,103,105,107,109,111,113,115,117,119,121,123,125,-1,-1,-1,-1,-1,-1,-1,-1,-1,-1,-1,-1,-1,-1,-1,-1,-1,-1,-1,-1,-1,-1,-1,-1,-1,-1,-1,-1,-1,-1,-1,-1,-1,-1,-1,-1,-1,-1,-1,-1,-1,-1,-1,-1,-1,-1,-1,-1,-1,-1,-1,-1,-1,-1,-1,-1,-1,-1,-1,-1,-1,-1,-1,-1],"loss_changes":[2.3995424E1,2.2095726E1,1.8354322E1,2.3609516E1,2.7443676E1,1.2764835E1,1.2381341E1,6.437767E1,5.830538E1,1.7175041E2,6.1555656E1,9.554569E0,1.2022714E1,5.4069443E0,9.029608E0,2.9018337E1,4.3399857E1,2.5619598E1,4.7972366E1,7.411746E1,8.567324E1,5.7417587E1,3.7735935E1,7.3691635E0,4.5302825E0,4.177376E0,8.004598E0,6.3654766E0,4.1872883E0,1.2014841E1,4.279401E0,6.373021E0,1.0892075E1,1.2662178E1,1.4909674E1,1.3845379E1,1.7625599E1,2.1069397E1,2.0559214E1,1.6872162E1,1.6037582E1,1.4725838E1,2.9966423E1,2.0125393E1,1.1339953E2,2.6710442E1,1.1211731E1,4.195422E1,5.663723E0,3.6300385E0,2.2482276E-1,6.9504538E0,7.994251E-1,2.5850859E0,5.8545713E0,6.5965667E0,4.460927E0,5.0306435E0,2.8642251E0,1.7808664E1,1.1436323E1,4.0774174E0,1.7523289E0,0E0,0E0,0E0,0E0,0E0,0E0,0E0,0E0,0E0,0E0,0E0,0E0,0E0,0E0,0E0,0E0,0E0,0E0,0E0,0E0,0E0,0E0,0E0,0E0,0E0,0E0,0E0,0E0,0E0,0E0,0E0,0E0,0E0,0E0,0E0,0E0,0E0,0E0,0E0,0E0,0E0,0E0,0E0,0E0,0E0,0E0,0E0,0E0,0E0,0E0,0E0,0E0,0E0,0E0,0E0,0E0,0E0,0E0,0E0,0E0,0E0,0E0,0E0,0E0],"parents":[2147483647,0,0,1,1,2,2,3,3,4,4,5,5,6,6,7,7,8,8,9,9,10,10,11,11,12,12,13,13,14,14,15,15,16,16,17,17,18,18,19,19,20,20,21,21,22,22,23,23,24,24,25,25,26,26,27,27,28,28,29,29,30,30,31,31,32,32,33,33,34,34,35,35,36,36,37,37,38,38,39,39,40,40,41,41,42,42,43,43,44,44,45,45,46,46,47,47,48,48,49,49,50,50,51,51,52,52,53,53,54,54,55,55,56,56,57,57,58,58,59,59,60,60,61,61,62,62],"right_children":[2,4,6,8,10,12,14,16,18,20,22,24,26,28,30,32,34,36,38,40,42,44,46,48,50,52,54,56,58,60,62,64,66,68,70,72,74,76,78,80,82,84,86,88,90,92,94,96,98,100,102,104,106,108,110,112,114,116,118,120,122,124,126,-1,-1,-1,-1,-1,-1,-1,-1,-1,-1,-1,-1,-1,-1,-1,-1,-1,-1,-1,-1,-1,-1,-1,-1,-1,-1,-1,-1,-1,-1,-1,-1,-1,-1,-1,-1,-1,-1,-1,-1,-1,-1,-1,-1,-1,-1,-1,-1,-1,-1,-1,-1,-1,-1,-1,-1,-1,-1,-1,-1,-1,-1,-1,-1],"split_conditions":[3.755E2,2.3021217E1,1.050645E5,7.5E0,7.5E0,2.1917864E1,1.047655E5,1.065E2,1.205E2,9.938422E1,1.505E2,1.022E3,4.25E1,2.5816565E1,1.1035E3,6.85E1,1.245E2,1.435E2,7.5E0,6.55E1,9.05E1,1.395E2,2.6E1,7.5E0,1.4785E3,7.5E0,3.915E2,1.9219713E1,1.8689493E2,1.055E2,1.52E3,3.75E1,1.11576E5,1.8795345E1,5.5E0,3.2531143E1,9.75E1,2.2131416E1,9.888422E1,5.95E1,1.325E2,3.5E0,1.575E2,2.0507872E1,2.6E1,8.85E1,1.03329E5,7.5E0,7.85E1,1.02E2,6.8E1,3.0565365E1,3.061191E1,1.765E2,2.3596167E1,1.8539493E2,1.1205E3,7.85E1,4E0,1.8539493E2,1.05956E5,1.8142368E1,1.5E0,-2.7233607E-1,5.0304406E-3,2.3971191E-1,-1.3804963E-1,1.5910608E-1,-2.2290233E-1,-1.6138121E-2,2.0592234E-1,-1.8514523E-2,-1.1022029E-1,2.5439658E-3,1.6459548E-1,-2.75907E-1,-7.816702E-2,1.5317E-1,-7.499136E-2,-7.170534E-2,1.4865871E-1,-1.528083E-1,-2.638136E-1,2.4367702E-1,1.4976689E-2,-7.473731E-2,7.7422455E-2,6.325543E-2,3.485876E-3,-7.276708E-2,1.5586245E-1,1.7767549E-1,-4.3820374E-2,-7.4211664E-2,-1.7845282E-1,2.531221E-1,-3.717715E-1,2.4496062E-1,1.0938628E-1,-2.1866424E-1,1.539626E-1,3.223712E-1,6.4616956E-2,9.824415E-3,3.3330202E-1,3.778391E-1,4.8007123E-2,-3.905829E-2,3.2307613E-1,8.041814E-2,-8.213922E-3,2.8140998E-1,-2.9259908E-1,1.3436328E-1,-1.86304E-1,-2.777097E-1,-2.2082265E-2,-1.3644147E-1,1.4234509E-1,2.6401132E-1,-1.1326691E-1,1.2376647E-2,1.849255E-1,2.1536213E-1,-2.2120288E-1,-7.477295E-2,3.0974507E-1],"split_indices":[20,10,11,13,13,10,5,21,20,20,20,21,21,10,21,20,20,21,19,21,21,21,2,19,21,19,20,17,15,21,20,20,11,10,13,17,20,10,21,20,21,3,20,17,2,21,5,13,9,9,16,10,10,15,17,15,20,9,18,15,11,10,7,0,0,0,0,0,0,0,0,0,0,0,0,0,0,0,0,0,0,0,0,0,0,0,0,0,0,0,0,0,0,0,0,0,0,0,0,0,0,0,0,0,0,0,0,0,0,0,0,0,0,0,0,0,0,0,0,0,0,0,0,0,0,0,0],"split_type":[0,0,0,0,0,0,0,0,0,0,0,0,0,0,0,0,0,0,0,0,0,0,0,0,0,0,0,0,0,0,0,0,0,0,0,0,0,0,0,0,0,0,0,0,0,0,0,0,0,0,0,0,0,0,0,0,0,0,0,0,0,0,0,0,0,0,0,0,0,0,0,0,0,0,0,0,0,0,0,0,0,0,0,0,0,0,0,0,0,0,0,0,0,0,0,0,0,0,0,0,0,0,0,0,0,0,0,0,0,0,0,0,0,0,0,0,0,0,0,0,0,0,0,0,0,0,0],